digraph Tree {
node [shape=box, style="filled, rounded", color="black", fontname=helvetica] ;
edge [fontname=helvetica] ;
0 [label="X[2] <= 0.09\ngini = 0.48\nsamples = 480\nvalue = [195, 285]", fillcolor="#c0e0f7"] ;
1 [label="X[9] <= 0.06\ngini = 0.12\nsamples = 253\nvalue = [16, 237]", fillcolor="#46a4e7"] ;
0 -> 1 [labeldistance=2.5, labelangle=45, headlabel="True"] ;
2 [label="gini = 0.24\nsamples = 7\nvalue = [6, 1]", fillcolor="#e9965a"] ;
1 -> 2 ;
3 [label="X[6] <= 0.11\ngini = 0.08\nsamples = 246\nvalue = [10, 236]", fillcolor="#41a1e6"] ;
1 -> 3 ;
4 [label="X[27] <= 0.08\ngini = 0.03\nsamples = 239\nvalue = [4, 235]", fillcolor="#3c9fe5"] ;
3 -> 4 ;
5 [label="gini = 0.0\nsamples = 3\nvalue = [3, 0]", fillcolor="#e58139"] ;
4 -> 5 ;
6 [label="X[21] <= 0.15\ngini = 0.01\nsamples = 236\nvalue = [1, 235]", fillcolor="#3a9de5"] ;
4 -> 6 ;
7 [label="gini = 0.0\nsamples = 235\nvalue = [0, 235]", fillcolor="#399de5"] ;
6 -> 7 ;
8 [label="gini = 0.0\nsamples = 1\nvalue = [1, 0]", fillcolor="#e58139"] ;
6 -> 8 ;
9 [label="gini = 0.24\nsamples = 7\nvalue = [6, 1]", fillcolor="#e9965a"] ;
3 -> 9 ;
10 [label="X[13] <= 0.36\ngini = 0.33\nsamples = 227\nvalue = [179, 48]", fillcolor="#eca36e"] ;
0 -> 10 [labeldistance=2.5, labelangle=-45, headlabel="False"] ;
11 [label="X[27] <= 0.08\ngini = 0.25\nsamples = 41\nvalue = [6, 35]", fillcolor="#5baee9"] ;
10 -> 11 ;
12 [label="gini = 0.0\nsamples = 3\nvalue = [3, 0]", fillcolor="#e58139"] ;
11 -> 12 ;
13 [label="X[3] <= 0.07\ngini = 0.15\nsamples = 38\nvalue = [3, 35]", fillcolor="#4aa5e7"] ;
11 -> 13 ;
14 [label="gini = 0.0\nsamples = 2\nvalue = [2, 0]", fillcolor="#e58139"] ;
13 -> 14 ;
15 [label="X[21] <= 0.07\ngini = 0.05\nsamples = 36\nvalue = [1, 35]", fillcolor="#3fa0e6"] ;
13 -> 15 ;
16 [label="gini = 0.0\nsamples = 1\nvalue = [1, 0]", fillcolor="#e58139"] ;
15 -> 16 ;
17 [label="gini = 0.0\nsamples = 35\nvalue = [0, 35]", fillcolor="#399de5"] ;
15 -> 17 ;
18 [label="X[27] <= 0.1\ngini = 0.13\nsamples = 186\nvalue = [173, 13]", fillcolor="#e78a48"] ;
10 -> 18 ;
19 [label="gini = 0.0\nsamples = 135\nvalue = [135, 0]", fillcolor="#e58139"] ;
18 -> 19 ;
20 [label="X[25] <= 0.21\ngini = 0.38\nsamples = 51\nvalue = [38, 13]", fillcolor="#eeac7d"] ;
18 -> 20 ;
21 [label="X[8] <= 0.04\ngini = 0.49\nsamples = 21\nvalue = [9, 12]", fillcolor="#cee6f8"] ;
20 -> 21 ;
22 [label="gini = 0.0\nsamples = 8\nvalue = [8, 0]", fillcolor="#e58139"] ;
21 -> 22 ;
23 [label="X[7] <= 0.41\ngini = 0.14\nsamples = 13\nvalue = [1, 12]", fillcolor="#49a5e7"] ;
21 -> 23 ;
24 [label="gini = 0.0\nsamples = 12\nvalue = [0, 12]", fillcolor="#399de5"] ;
23 -> 24 ;
25 [label="gini = 0.0\nsamples = 1\nvalue = [1, 0]", fillcolor="#e58139"] ;
23 -> 25 ;
26 [label="X[9] <= 0.06\ngini = 0.06\nsamples = 30\nvalue = [29, 1]", fillcolor="#e68540"] ;
20 -> 26 ;
27 [label="gini = 0.5\nsamples = 2\nvalue = [1, 1]", fillcolor="#ffffff"] ;
26 -> 27 ;
28 [label="gini = 0.0\nsamples = 28\nvalue = [28, 0]", fillcolor="#e58139"] ;
26 -> 28 ;
}