digraph Tree {
node [shape=box, style="filled, rounded", color="black", fontname=helvetica] ;
edge [fontname=helvetica] ;
0 [label="UD.o.a <= 0.06\nmse = 0.99\nsamples = 450\nvalue = -0.09", fillcolor="#f3c6a5"] ;
1 [label="UD.five.Shift.r <= 0.23\nmse = 0.82\nsamples = 260\nvalue = 0.42", fillcolor="#eca572"] ;
0 -> 1 [labeldistance=2.5, labelangle=45, headlabel="True"] ;
2 [label="UD.Shift.r.o <= 0.0\nmse = 0.09\nsamples = 179\nvalue = 0.96", fillcolor="#e6843d"] ;
1 -> 2 ;
3 [label="mse = 0.0\nsamples = 2\nvalue = -1.0", fillcolor="#ffffff"] ;
2 -> 3 ;
4 [label="H.a <= 0.08\nmse = 0.04\nsamples = 177\nvalue = 0.98", fillcolor="#e5823b"] ;
2 -> 4 ;
5 [label="mse = 0.0\nsamples = 174\nvalue = 1.0", fillcolor="#e58139"] ;
4 -> 5 ;
6 [label="mse = 0.89\nsamples = 3\nvalue = -0.33", fillcolor="#f6d5bd"] ;
4 -> 6 ;
7 [label="H.five <= 0.06\nmse = 0.43\nsamples = 81\nvalue = -0.75", fillcolor="#fcefe7"] ;
1 -> 7 ;
8 [label="UD.period.t <= 0.08\nmse = 0.95\nsamples = 18\nvalue = -0.22", fillcolor="#f5ceb2"] ;
7 -> 8 ;
9 [label="mse = 0.0\nsamples = 7\nvalue = 1.0", fillcolor="#e58139"] ;
8 -> 9 ;
10 [label="mse = 0.0\nsamples = 11\nvalue = -1.0", fillcolor="#ffffff"] ;
8 -> 10 ;
11 [label="DD.period.t <= 0.15\nmse = 0.18\nsamples = 63\nvalue = -0.9", fillcolor="#fef9f6"] ;
7 -> 11 ;
12 [label="mse = 0.0\nsamples = 2\nvalue = 1.0", fillcolor="#e58139"] ;
11 -> 12 ;
13 [label="UD.period.t <= 0.43\nmse = 0.06\nsamples = 61\nvalue = -0.97", fillcolor="#fffdfc"] ;
11 -> 13 ;
14 [label="mse = 0.0\nsamples = 55\nvalue = -1.0", fillcolor="#ffffff"] ;
13 -> 14 ;
15 [label="DD.Shift.r.o <= 0.16\nmse = 0.56\nsamples = 6\nvalue = -0.67", fillcolor="#fbeade"] ;
13 -> 15 ;
16 [label="mse = 0.0\nsamples = 1\nvalue = 1.0", fillcolor="#e58139"] ;
15 -> 16 ;
17 [label="mse = 0.0\nsamples = 5\nvalue = -1.0", fillcolor="#ffffff"] ;
15 -> 17 ;
18 [label="DD.Shift.r.o <= 0.16\nmse = 0.38\nsamples = 190\nvalue = -0.79", fillcolor="#fcf2ea"] ;
0 -> 18 [labeldistance=2.5, labelangle=-45, headlabel="False"] ;
19 [label="UD.t.i <= 0.02\nmse = 0.61\nsamples = 16\nvalue = 0.62", fillcolor="#ea995e"] ;
18 -> 19 ;
20 [label="mse = 0.0\nsamples = 2\nvalue = -1.0", fillcolor="#ffffff"] ;
19 -> 20 ;
21 [label="UD.e.five <= 0.34\nmse = 0.27\nsamples = 14\nvalue = 0.86", fillcolor="#e78a47"] ;
19 -> 21 ;
22 [label="mse = 0.0\nsamples = 13\nvalue = 1.0", fillcolor="#e58139"] ;
21 -> 22 ;
23 [label="mse = 0.0\nsamples = 1\nvalue = -1.0", fillcolor="#ffffff"] ;
21 -> 23 ;
24 [label="DD.period.t <= 0.15\nmse = 0.15\nsamples = 174\nvalue = -0.92", fillcolor="#fefaf7"] ;
18 -> 24 ;
25 [label="H.Shift.r <= 0.1\nmse = 0.75\nsamples = 8\nvalue = 0.5", fillcolor="#eca06a"] ;
24 -> 25 ;
26 [label="mse = 0.0\nsamples = 6\nvalue = 1.0", fillcolor="#e58139"] ;
25 -> 26 ;
27 [label="mse = 0.0\nsamples = 2\nvalue = -1.0", fillcolor="#ffffff"] ;
25 -> 27 ;
28 [label="DD.period.t <= 0.29\nmse = 0.02\nsamples = 166\nvalue = -0.99", fillcolor="#fffefe"] ;
24 -> 28 ;
29 [label="H.a <= 0.05\nmse = 0.06\nsamples = 63\nvalue = -0.97", fillcolor="#fffdfc"] ;
28 -> 29 ;
30 [label="mse = 1.0\nsamples = 2\nvalue = 0.0", fillcolor="#f2c09c"] ;
29 -> 30 ;
31 [label="mse = 0.0\nsamples = 61\nvalue = -1.0", fillcolor="#ffffff"] ;
29 -> 31 ;
32 [label="mse = 0.0\nsamples = 103\nvalue = -1.0", fillcolor="#ffffff"] ;
28 -> 32 ;
}