digraph Tree {
node [shape=box, style="filled, rounded", color="black", fontname=helvetica] ;
edge [fontname=helvetica] ;
0 [label="UD.n.l <= 0.03\nmse = 0.98\nsamples = 450\nvalue = -0.12", fillcolor="#f4c8a8"] ;
1 [label="H.a <= 0.09\nmse = 0.19\nsamples = 195\nvalue = 0.9", fillcolor="#e68743"] ;
0 -> 1 [labeldistance=2.5, labelangle=45, headlabel="True"] ;
2 [label="UD.l.Return <= 0.11\nmse = 0.82\nsamples = 7\nvalue = -0.43", fillcolor="#f8dbc6"] ;
1 -> 2 ;
3 [label="mse = 0.0\nsamples = 2\nvalue = 1.0", fillcolor="#e58139"] ;
2 -> 3 ;
4 [label="mse = 0.0\nsamples = 5\nvalue = -1.0", fillcolor="#ffffff"] ;
2 -> 4 ;
5 [label="DD.five.Shift.r <= 0.45\nmse = 0.1\nsamples = 188\nvalue = 0.95", fillcolor="#e6843e"] ;
1 -> 5 ;
6 [label="mse = 0.0\nsamples = 169\nvalue = 1.0", fillcolor="#e58139"] ;
5 -> 6 ;
7 [label="H.Shift.r <= 0.11\nmse = 0.78\nsamples = 19\nvalue = 0.47", fillcolor="#eca26d"] ;
5 -> 7 ;
8 [label="DD.e.five <= 0.78\nmse = 0.56\nsamples = 6\nvalue = -0.67", fillcolor="#fbeade"] ;
7 -> 8 ;
9 [label="mse = 0.0\nsamples = 4\nvalue = -1.0", fillcolor="#ffffff"] ;
8 -> 9 ;
10 [label="mse = 1.0\nsamples = 2\nvalue = 0.0", fillcolor="#f2c09c"] ;
8 -> 10 ;
11 [label="mse = 0.0\nsamples = 13\nvalue = 1.0", fillcolor="#e58139"] ;
7 -> 11 ;
12 [label="H.e <= 0.1\nmse = 0.18\nsamples = 255\nvalue = -0.91", fillcolor="#fef9f6"] ;
0 -> 12 [labeldistance=2.5, labelangle=-45, headlabel="False"] ;
13 [label="H.l <= 0.03\nmse = 0.06\nsamples = 200\nvalue = -0.97", fillcolor="#fffdfc"] ;
12 -> 13 ;
14 [label="mse = 0.0\nsamples = 1\nvalue = 1.0", fillcolor="#e58139"] ;
13 -> 14 ;
15 [label="DD.n.l <= 0.18\nmse = 0.04\nsamples = 199\nvalue = -0.98", fillcolor="#fffefd"] ;
13 -> 15 ;
16 [label="H.a <= 0.14\nmse = 0.15\nsamples = 50\nvalue = -0.92", fillcolor="#fefaf7"] ;
15 -> 16 ;
17 [label="mse = 0.0\nsamples = 48\nvalue = -1.0", fillcolor="#ffffff"] ;
16 -> 17 ;
18 [label="mse = 0.0\nsamples = 2\nvalue = 1.0", fillcolor="#e58139"] ;
16 -> 18 ;
19 [label="mse = 0.0\nsamples = 149\nvalue = -1.0", fillcolor="#ffffff"] ;
15 -> 19 ;
20 [label="UD.l.Return <= 0.16\nmse = 0.55\nsamples = 55\nvalue = -0.67", fillcolor="#fbeadf"] ;
12 -> 20 ;
21 [label="UD.period.t <= 0.1\nmse = 0.75\nsamples = 8\nvalue = 0.5", fillcolor="#eca06a"] ;
20 -> 21 ;
22 [label="mse = 0.89\nsamples = 3\nvalue = -0.33", fillcolor="#f6d5bd"] ;
21 -> 22 ;
23 [label="mse = 0.0\nsamples = 5\nvalue = 1.0", fillcolor="#e58139"] ;
21 -> 23 ;
24 [label="UD.Shift.r.o <= 0.08\nmse = 0.24\nsamples = 47\nvalue = -0.87", fillcolor="#fdf7f2"] ;
20 -> 24 ;
25 [label="mse = 0.89\nsamples = 3\nvalue = 0.33", fillcolor="#eeab7b"] ;
24 -> 25 ;
26 [label="DD.l.Return <= 0.29\nmse = 0.09\nsamples = 44\nvalue = -0.95", fillcolor="#fefcfa"] ;
24 -> 26 ;
27 [label="mse = 0.75\nsamples = 4\nvalue = -0.5", fillcolor="#f8e0ce"] ;
26 -> 27 ;
28 [label="mse = 0.0\nsamples = 40\nvalue = -1.0", fillcolor="#ffffff"] ;
26 -> 28 ;
}