digraph Tree {
node [shape=box, style="filled, rounded", color="black", fontname=helvetica] ;
edge [fontname=helvetica] ;
0 [label="DD.n.l <= 0.16\nmse = 0.99\nsamples = 450\nvalue = -0.08", fillcolor="#f3c5a4"] ;
1 [label="UD.n.l <= 0.05\nmse = 0.49\nsamples = 229\nvalue = 0.71", fillcolor="#e99356"] ;
0 -> 1 [labeldistance=2.5, labelangle=45, headlabel="True"] ;
2 [label="mse = 0.0\nsamples = 18\nvalue = -1.0", fillcolor="#ffffff"] ;
1 -> 2 ;
3 [label="DD.Shift.r.o <= 0.19\nmse = 0.26\nsamples = 211\nvalue = 0.86", fillcolor="#e78a47"] ;
1 -> 3 ;
4 [label="H.i <= 0.07\nmse = 0.08\nsamples = 188\nvalue = 0.96", fillcolor="#e6843d"] ;
3 -> 4 ;
5 [label="UD.five.Shift.r <= 0.31\nmse = 0.94\nsamples = 8\nvalue = 0.25", fillcolor="#efb083"] ;
4 -> 5 ;
6 [label="mse = 0.0\nsamples = 3\nvalue = 1.0", fillcolor="#e58139"] ;
5 -> 6 ;
7 [label="H.o <= 0.07\nmse = 0.96\nsamples = 5\nvalue = -0.2", fillcolor="#f5cdb0"] ;
5 -> 7 ;
8 [label="mse = 0.0\nsamples = 3\nvalue = -1.0", fillcolor="#ffffff"] ;
7 -> 8 ;
9 [label="mse = 0.0\nsamples = 2\nvalue = 1.0", fillcolor="#e58139"] ;
7 -> 9 ;
10 [label="DD.e.five <= 0.6\nmse = 0.02\nsamples = 180\nvalue = 0.99", fillcolor="#e5823a"] ;
4 -> 10 ;
11 [label="mse = 0.0\nsamples = 171\nvalue = 1.0", fillcolor="#e58139"] ;
10 -> 11 ;
12 [label="UD.o.a <= 0.05\nmse = 0.4\nsamples = 9\nvalue = 0.78", fillcolor="#e88f4f"] ;
10 -> 12 ;
13 [label="mse = 0.0\nsamples = 8\nvalue = 1.0", fillcolor="#e58139"] ;
12 -> 13 ;
14 [label="mse = 0.0\nsamples = 1\nvalue = -1.0", fillcolor="#ffffff"] ;
12 -> 14 ;
15 [label="UD.period.t <= 0.08\nmse = 1.0\nsamples = 23\nvalue = 0.04", fillcolor="#f1bd98"] ;
3 -> 15 ;
16 [label="mse = 0.0\nsamples = 12\nvalue = 1.0", fillcolor="#e58139"] ;
15 -> 16 ;
17 [label="mse = 0.0\nsamples = 11\nvalue = -1.0", fillcolor="#ffffff"] ;
15 -> 17 ;
18 [label="UD.period.t <= 0.05\nmse = 0.19\nsamples = 221\nvalue = -0.9", fillcolor="#fef9f5"] ;
0 -> 18 [labeldistance=2.5, labelangle=-45, headlabel="False"] ;
19 [label="UD.l.Return <= 0.2\nmse = 0.96\nsamples = 5\nvalue = 0.2", fillcolor="#efb388"] ;
18 -> 19 ;
20 [label="mse = 0.0\nsamples = 3\nvalue = 1.0", fillcolor="#e58139"] ;
19 -> 20 ;
21 [label="mse = 0.0\nsamples = 2\nvalue = -1.0", fillcolor="#ffffff"] ;
19 -> 21 ;
22 [label="H.e <= 0.06\nmse = 0.14\nsamples = 216\nvalue = -0.93", fillcolor="#fefaf8"] ;
18 -> 22 ;
23 [label="DD.n.l <= 0.2\nmse = 0.67\nsamples = 28\nvalue = -0.57", fillcolor="#f9e4d5"] ;
22 -> 23 ;
24 [label="H.Return <= 0.08\nmse = 0.64\nsamples = 5\nvalue = 0.6", fillcolor="#ea9a61"] ;
23 -> 24 ;
25 [label="mse = 0.0\nsamples = 1\nvalue = -1.0", fillcolor="#ffffff"] ;
24 -> 25 ;
26 [label="mse = 0.0\nsamples = 4\nvalue = 1.0", fillcolor="#e58139"] ;
24 -> 26 ;
27 [label="DD.Shift.r.o <= 0.13\nmse = 0.32\nsamples = 23\nvalue = -0.83", fillcolor="#fdf4ee"] ;
23 -> 27 ;
28 [label="mse = 0.0\nsamples = 1\nvalue = 1.0", fillcolor="#e58139"] ;
27 -> 28 ;
29 [label="UD.t.i <= 0.01\nmse = 0.17\nsamples = 22\nvalue = -0.91", fillcolor="#fef9f6"] ;
27 -> 29 ;
30 [label="mse = 0.0\nsamples = 1\nvalue = 1.0", fillcolor="#e58139"] ;
29 -> 30 ;
31 [label="mse = 0.0\nsamples = 21\nvalue = -1.0", fillcolor="#ffffff"] ;
29 -> 31 ;
32 [label="DD.e.five <= 0.24\nmse = 0.04\nsamples = 188\nvalue = -0.98", fillcolor="#fffefd"] ;
22 -> 32 ;
33 [label="UD.Shift.r.o <= 0.07\nmse = 0.56\nsamples = 6\nvalue = -0.67", fillcolor="#fbeade"] ;
32 -> 33 ;
34 [label="mse = 0.0\nsamples = 1\nvalue = 1.0", fillcolor="#e58139"] ;
33 -> 34 ;
35 [label="mse = 0.0\nsamples = 5\nvalue = -1.0", fillcolor="#ffffff"] ;
33 -> 35 ;
36 [label="DD.a.n <= 0.1\nmse = 0.02\nsamples = 182\nvalue = -0.99", fillcolor="#fffefe"] ;
32 -> 36 ;
37 [label="H.i <= 0.09\nmse = 0.36\nsamples = 10\nvalue = -0.8", fillcolor="#fcf2eb"] ;
36 -> 37 ;
38 [label="mse = 0.0\nsamples = 9\nvalue = -1.0", fillcolor="#ffffff"] ;
37 -> 38 ;
39 [label="mse = 0.0\nsamples = 1\nvalue = 1.0", fillcolor="#e58139"] ;
37 -> 39 ;
40 [label="mse = 0.0\nsamples = 172\nvalue = -1.0", fillcolor="#ffffff"] ;
36 -> 40 ;
}