digraph Tree {
node [shape=box, style="filled, rounded", color="black", fontname=helvetica] ;
edge [fontname=helvetica] ;
0 [label="DD.o.a <= 0.24\nmse = 0.99\nsamples = 450\nvalue = -0.11", fillcolor="#f3c7a7"] ;
1 [label="H.n <= 0.09\nmse = 0.58\nsamples = 244\nvalue = -0.65", fillcolor="#fae9dc"] ;
0 -> 1 [labeldistance=2.5, labelangle=45, headlabel="True"] ;
2 [label="H.Shift.r <= 0.09\nmse = 0.19\nsamples = 160\nvalue = -0.9", fillcolor="#fef9f5"] ;
1 -> 2 ;
3 [label="mse = 0.0\nsamples = 99\nvalue = -1.0", fillcolor="#ffffff"] ;
2 -> 3 ;
4 [label="H.l <= 0.08\nmse = 0.46\nsamples = 61\nvalue = -0.74", fillcolor="#fceee5"] ;
2 -> 4 ;
5 [label="mse = 0.0\nsamples = 24\nvalue = -1.0", fillcolor="#ffffff"] ;
4 -> 5 ;
6 [label="UD.e.five <= 0.21\nmse = 0.68\nsamples = 37\nvalue = -0.57", fillcolor="#f9e4d4"] ;
4 -> 6 ;
7 [label="mse = 0.0\nsamples = 2\nvalue = 1.0", fillcolor="#e58139"] ;
6 -> 7 ;
8 [label="H.five <= 0.07\nmse = 0.57\nsamples = 35\nvalue = -0.66", fillcolor="#fbe9dd"] ;
6 -> 8 ;
9 [label="UD.a.n <= 0.03\nmse = 0.98\nsamples = 7\nvalue = 0.14", fillcolor="#f0b78e"] ;
8 -> 9 ;
10 [label="mse = 0.0\nsamples = 2\nvalue = -1.0", fillcolor="#ffffff"] ;
9 -> 10 ;
11 [label="DD.n.l <= 0.2\nmse = 0.64\nsamples = 5\nvalue = 0.6", fillcolor="#ea9a61"] ;
9 -> 11 ;
12 [label="mse = 0.0\nsamples = 1\nvalue = -1.0", fillcolor="#ffffff"] ;
11 -> 12 ;
13 [label="mse = 0.0\nsamples = 4\nvalue = 1.0", fillcolor="#e58139"] ;
11 -> 13 ;
14 [label="DD.n.l <= 0.2\nmse = 0.27\nsamples = 28\nvalue = -0.86", fillcolor="#fdf6f1"] ;
8 -> 14 ;
15 [label="H.Shift.r <= 0.1\nmse = 0.6\nsamples = 11\nvalue = -0.64", fillcolor="#fae8db"] ;
14 -> 15 ;
16 [label="mse = 0.0\nsamples = 1\nvalue = 1.0", fillcolor="#e58139"] ;
15 -> 16 ;
17 [label="DD.l.Return <= 0.4\nmse = 0.36\nsamples = 10\nvalue = -0.8", fillcolor="#fcf2eb"] ;
15 -> 17 ;
18 [label="mse = 0.0\nsamples = 8\nvalue = -1.0", fillcolor="#ffffff"] ;
17 -> 18 ;
19 [label="mse = 1.0\nsamples = 2\nvalue = 0.0", fillcolor="#f2c09c"] ;
17 -> 19 ;
20 [label="mse = 0.0\nsamples = 17\nvalue = -1.0", fillcolor="#ffffff"] ;
14 -> 20 ;
21 [label="DD.t.i <= 0.15\nmse = 0.97\nsamples = 84\nvalue = -0.17", fillcolor="#f4caac"] ;
1 -> 21 ;
22 [label="UD.Shift.r.o <= 0.21\nmse = 0.12\nsamples = 33\nvalue = -0.94", fillcolor="#fefbf9"] ;
21 -> 22 ;
23 [label="mse = 0.0\nsamples = 26\nvalue = -1.0", fillcolor="#ffffff"] ;
22 -> 23 ;
24 [label="DD.l.Return <= 0.25\nmse = 0.49\nsamples = 7\nvalue = -0.71", fillcolor="#fbede3"] ;
22 -> 24 ;
25 [label="mse = 0.0\nsamples = 1\nvalue = 1.0", fillcolor="#e58139"] ;
24 -> 25 ;
26 [label="mse = 0.0\nsamples = 6\nvalue = -1.0", fillcolor="#ffffff"] ;
24 -> 26 ;
27 [label="H.t <= 0.09\nmse = 0.89\nsamples = 51\nvalue = 0.33", fillcolor="#eeab7b"] ;
21 -> 27 ;
28 [label="DD.five.Shift.r <= 0.52\nmse = 0.57\nsamples = 41\nvalue = 0.66", fillcolor="#e9975b"] ;
27 -> 28 ;
29 [label="mse = 0.0\nsamples = 5\nvalue = -1.0", fillcolor="#ffffff"] ;
28 -> 29 ;
30 [label="H.period <= 0.07\nmse = 0.21\nsamples = 36\nvalue = 0.89", fillcolor="#e68844"] ;
28 -> 30 ;
31 [label="mse = 0.0\nsamples = 2\nvalue = -1.0", fillcolor="#ffffff"] ;
30 -> 31 ;
32 [label="mse = 0.0\nsamples = 34\nvalue = 1.0", fillcolor="#e58139"] ;
30 -> 32 ;
33 [label="mse = 0.0\nsamples = 10\nvalue = -1.0", fillcolor="#ffffff"] ;
27 -> 33 ;
34 [label="UD.a.n <= 0.08\nmse = 0.73\nsamples = 206\nvalue = 0.52", fillcolor="#eb9f68"] ;
0 -> 34 [labeldistance=2.5, labelangle=-45, headlabel="False"] ;
35 [label="H.Return <= 0.03\nmse = 0.47\nsamples = 22\nvalue = -0.73", fillcolor="#fbeee4"] ;
34 -> 35 ;
36 [label="mse = 0.0\nsamples = 1\nvalue = 1.0", fillcolor="#e58139"] ;
35 -> 36 ;
37 [label="DD.five.Shift.r <= 0.71\nmse = 0.34\nsamples = 21\nvalue = -0.81", fillcolor="#fdf3ec"] ;
35 -> 37 ;
38 [label="mse = 0.0\nsamples = 15\nvalue = -1.0", fillcolor="#ffffff"] ;
37 -> 38 ;
39 [label="DD.Shift.r.o <= 0.34\nmse = 0.89\nsamples = 6\nvalue = -0.33", fillcolor="#f6d5bd"] ;
37 -> 39 ;
40 [label="mse = 0.89\nsamples = 3\nvalue = 0.33", fillcolor="#eeab7b"] ;
39 -> 40 ;
41 [label="mse = 0.0\nsamples = 3\nvalue = -1.0", fillcolor="#ffffff"] ;
39 -> 41 ;
42 [label="H.t <= 0.1\nmse = 0.55\nsamples = 184\nvalue = 0.67", fillcolor="#e99659"] ;
34 -> 42 ;
43 [label="DD.e.five <= 1.11\nmse = 0.34\nsamples = 170\nvalue = 0.81", fillcolor="#e78d4c"] ;
42 -> 43 ;
44 [label="UD.five.Shift.r <= 0.55\nmse = 0.19\nsamples = 159\nvalue = 0.9", fillcolor="#e68743"] ;
43 -> 44 ;
45 [label="mse = 0.0\nsamples = 6\nvalue = -1.0", fillcolor="#ffffff"] ;
44 -> 45 ;
46 [label="DD.Shift.r.o <= 0.83\nmse = 0.05\nsamples = 153\nvalue = 0.97", fillcolor="#e5833c"] ;
44 -> 46 ;
47 [label="H.o <= 0.06\nmse = 0.03\nsamples = 152\nvalue = 0.99", fillcolor="#e5823a"] ;
46 -> 47 ;
48 [label="H.a <= 0.11\nmse = 0.56\nsamples = 6\nvalue = 0.67", fillcolor="#e9965a"] ;
47 -> 48 ;
49 [label="mse = 0.0\nsamples = 1\nvalue = -1.0", fillcolor="#ffffff"] ;
48 -> 49 ;
50 [label="mse = 0.0\nsamples = 5\nvalue = 1.0", fillcolor="#e58139"] ;
48 -> 50 ;
51 [label="mse = 0.0\nsamples = 146\nvalue = 1.0", fillcolor="#e58139"] ;
47 -> 51 ;
52 [label="mse = 0.0\nsamples = 1\nvalue = -1.0", fillcolor="#ffffff"] ;
46 -> 52 ;
53 [label="H.Return <= 0.09\nmse = 0.79\nsamples = 11\nvalue = -0.45", fillcolor="#f8ddc9"] ;
43 -> 53 ;
54 [label="mse = 0.0\nsamples = 7\nvalue = -1.0", fillcolor="#ffffff"] ;
53 -> 54 ;
55 [label="mse = 0.75\nsamples = 4\nvalue = 0.5", fillcolor="#eca06a"] ;
53 -> 55 ;
56 [label="mse = 0.0\nsamples = 14\nvalue = -1.0", fillcolor="#ffffff"] ;
42 -> 56 ;
}