digraph Tree {
node [shape=box, style="filled, rounded", color="black", fontname=helvetica] ;
edge [fontname=helvetica] ;
0 [label="H.i <= 0.09\nmse = 0.98\nsamples = 450\nvalue = -0.13", fillcolor="#f4c8a9"] ;
1 [label="DD.n.l <= 0.09\nmse = 0.25\nsamples = 181\nvalue = -0.87", fillcolor="#fdf7f2"] ;
0 -> 1 [labeldistance=2.5, labelangle=45, headlabel="True"] ;
2 [label="UD.l.Return <= 0.32\nmse = 0.33\nsamples = 11\nvalue = 0.82", fillcolor="#e78c4b"] ;
1 -> 2 ;
3 [label="mse = 0.0\nsamples = 10\nvalue = 1.0", fillcolor="#e58139"] ;
2 -> 3 ;
4 [label="mse = 0.0\nsamples = 1\nvalue = -1.0", fillcolor="#ffffff"] ;
2 -> 4 ;
5 [label="DD.period.t <= 0.14\nmse = 0.05\nsamples = 170\nvalue = -0.98", fillcolor="#fffefd"] ;
1 -> 5 ;
6 [label="mse = 1.0\nsamples = 2\nvalue = 0.0", fillcolor="#f2c09c"] ;
5 -> 6 ;
7 [label="DD.e.five <= 1.09\nmse = 0.02\nsamples = 168\nvalue = -0.99", fillcolor="#fffefe"] ;
5 -> 7 ;
8 [label="mse = 0.0\nsamples = 152\nvalue = -1.0", fillcolor="#ffffff"] ;
7 -> 8 ;
9 [label="H.i <= 0.08\nmse = 0.23\nsamples = 16\nvalue = -0.88", fillcolor="#fdf7f3"] ;
7 -> 9 ;
10 [label="mse = 0.0\nsamples = 15\nvalue = -1.0", fillcolor="#ffffff"] ;
9 -> 10 ;
11 [label="mse = 0.0\nsamples = 1\nvalue = 1.0", fillcolor="#e58139"] ;
9 -> 11 ;
12 [label="DD.Shift.r.o <= 0.19\nmse = 0.87\nsamples = 269\nvalue = 0.36", fillcolor="#eda978"] ;
0 -> 12 [labeldistance=2.5, labelangle=-45, headlabel="False"] ;
13 [label="H.e <= 0.06\nmse = 0.19\nsamples = 158\nvalue = 0.9", fillcolor="#e68743"] ;
12 -> 13 ;
14 [label="mse = 0.75\nsamples = 4\nvalue = -0.5", fillcolor="#f8e0ce"] ;
13 -> 14 ;
15 [label="H.t <= 0.06\nmse = 0.13\nsamples = 154\nvalue = 0.94", fillcolor="#e6853f"] ;
13 -> 15 ;
16 [label="mse = 0.0\nsamples = 1\nvalue = -1.0", fillcolor="#ffffff"] ;
15 -> 16 ;
17 [label="H.n <= 0.06\nmse = 0.1\nsamples = 153\nvalue = 0.95", fillcolor="#e6843e"] ;
15 -> 17 ;
18 [label="mse = 0.0\nsamples = 1\nvalue = -1.0", fillcolor="#ffffff"] ;
17 -> 18 ;
19 [label="DD.o.a <= 0.09\nmse = 0.08\nsamples = 152\nvalue = 0.96", fillcolor="#e6833d"] ;
17 -> 19 ;
20 [label="DD.l.Return <= 0.24\nmse = 0.69\nsamples = 9\nvalue = 0.56", fillcolor="#eb9d65"] ;
19 -> 20 ;
21 [label="mse = 0.0\nsamples = 7\nvalue = 1.0", fillcolor="#e58139"] ;
20 -> 21 ;
22 [label="mse = 0.0\nsamples = 2\nvalue = -1.0", fillcolor="#ffffff"] ;
20 -> 22 ;
23 [label="H.period <= 0.13\nmse = 0.03\nsamples = 143\nvalue = 0.99", fillcolor="#e5823a"] ;
19 -> 23 ;
24 [label="mse = 0.0\nsamples = 135\nvalue = 1.0", fillcolor="#e58139"] ;
23 -> 24 ;
25 [label="UD.t.i <= 0.17\nmse = 0.44\nsamples = 8\nvalue = 0.75", fillcolor="#e89152"] ;
23 -> 25 ;
26 [label="mse = 0.0\nsamples = 7\nvalue = 1.0", fillcolor="#e58139"] ;
25 -> 26 ;
27 [label="mse = 0.0\nsamples = 1\nvalue = -1.0", fillcolor="#ffffff"] ;
25 -> 27 ;
28 [label="UD.period.t <= 0.11\nmse = 0.84\nsamples = 111\nvalue = -0.41", fillcolor="#f7dac4"] ;
12 -> 28 ;
29 [label="DD.Shift.r.o <= 0.3\nmse = 0.78\nsamples = 34\nvalue = 0.47", fillcolor="#eca26d"] ;
28 -> 29 ;
30 [label="H.l <= 0.15\nmse = 0.96\nsamples = 20\nvalue = 0.2", fillcolor="#efb388"] ;
29 -> 30 ;
31 [label="DD.a.n <= 0.19\nmse = 0.83\nsamples = 17\nvalue = 0.41", fillcolor="#eda673"] ;
30 -> 31 ;
32 [label="UD.l.Return <= 0.14\nmse = 1.0\nsamples = 10\nvalue = 0.0", fillcolor="#f2c09c"] ;
31 -> 32 ;
33 [label="mse = 0.0\nsamples = 3\nvalue = 1.0", fillcolor="#e58139"] ;
32 -> 33 ;
34 [label="H.n <= 0.11\nmse = 0.82\nsamples = 7\nvalue = -0.43", fillcolor="#f8dbc6"] ;
32 -> 34 ;
35 [label="mse = 0.0\nsamples = 4\nvalue = -1.0", fillcolor="#ffffff"] ;
34 -> 35 ;
36 [label="mse = 0.89\nsamples = 3\nvalue = 0.33", fillcolor="#eeab7b"] ;
34 -> 36 ;
37 [label="mse = 0.0\nsamples = 7\nvalue = 1.0", fillcolor="#e58139"] ;
31 -> 37 ;
38 [label="mse = 0.0\nsamples = 3\nvalue = -1.0", fillcolor="#ffffff"] ;
30 -> 38 ;
39 [label="UD.o.a <= 0.08\nmse = 0.27\nsamples = 14\nvalue = 0.86", fillcolor="#e78a47"] ;
29 -> 39 ;
40 [label="mse = 1.0\nsamples = 2\nvalue = 0.0", fillcolor="#f2c09c"] ;
39 -> 40 ;
41 [label="mse = 0.0\nsamples = 12\nvalue = 1.0", fillcolor="#e58139"] ;
39 -> 41 ;
42 [label="UD.n.l <= -0.03\nmse = 0.37\nsamples = 77\nvalue = -0.79", fillcolor="#fcf2ea"] ;
28 -> 42 ;
43 [label="mse = 0.75\nsamples = 4\nvalue = 0.5", fillcolor="#eca06a"] ;
42 -> 43 ;
44 [label="UD.e.five <= 0.14\nmse = 0.26\nsamples = 73\nvalue = -0.86", fillcolor="#fdf6f1"] ;
42 -> 44 ;
45 [label="mse = 0.0\nsamples = 1\nvalue = 1.0", fillcolor="#e58139"] ;
44 -> 45 ;
46 [label="H.i <= 0.12\nmse = 0.21\nsamples = 72\nvalue = -0.89", fillcolor="#fef8f4"] ;
44 -> 46 ;
47 [label="mse = 0.0\nsamples = 54\nvalue = -1.0", fillcolor="#ffffff"] ;
46 -> 47 ;
48 [label="H.Return <= 0.09\nmse = 0.69\nsamples = 18\nvalue = -0.56", fillcolor="#f9e3d3"] ;
46 -> 48 ;
49 [label="DD.o.a <= 0.15\nmse = 0.64\nsamples = 5\nvalue = 0.6", fillcolor="#ea9a61"] ;
48 -> 49 ;
50 [label="mse = 0.0\nsamples = 1\nvalue = -1.0", fillcolor="#ffffff"] ;
49 -> 50 ;
51 [label="mse = 0.0\nsamples = 4\nvalue = 1.0", fillcolor="#e58139"] ;
49 -> 51 ;
52 [label="mse = 0.0\nsamples = 13\nvalue = -1.0", fillcolor="#ffffff"] ;
48 -> 52 ;
}