digraph Tree {
node [shape=box, style="filled, rounded", color="black", fontname=helvetica] ;
edge [fontname=helvetica] ;
0 [label="DD.e.five <= 0.28\nmse = 0.98\nsamples = 450\nvalue = -0.12", fillcolor="#f4c8a8"] ;
1 [label="UD.five.Shift.r <= 0.3\nmse = 0.36\nsamples = 188\nvalue = 0.8", fillcolor="#e88e4d"] ;
0 -> 1 [labeldistance=2.5, labelangle=45, headlabel="True"] ;
2 [label="H.e <= 0.11\nmse = 0.14\nsamples = 167\nvalue = 0.93", fillcolor="#e68640"] ;
1 -> 2 ;
3 [label="DD.t.i <= 0.1\nmse = 0.12\nsamples = 166\nvalue = 0.94", fillcolor="#e6853f"] ;
2 -> 3 ;
4 [label="mse = 0.0\nsamples = 4\nvalue = -1.0", fillcolor="#ffffff"] ;
3 -> 4 ;
5 [label="DD.t.i <= 0.15\nmse = 0.02\nsamples = 162\nvalue = 0.99", fillcolor="#e5823a"] ;
3 -> 5 ;
6 [label="DD.t.i <= 0.15\nmse = 0.19\nsamples = 20\nvalue = 0.9", fillcolor="#e68743"] ;
5 -> 6 ;
7 [label="mse = 0.0\nsamples = 19\nvalue = 1.0", fillcolor="#e58139"] ;
6 -> 7 ;
8 [label="mse = 0.0\nsamples = 1\nvalue = -1.0", fillcolor="#ffffff"] ;
6 -> 8 ;
9 [label="mse = 0.0\nsamples = 142\nvalue = 1.0", fillcolor="#e58139"] ;
5 -> 9 ;
10 [label="mse = 0.0\nsamples = 1\nvalue = -1.0", fillcolor="#ffffff"] ;
2 -> 10 ;
11 [label="UD.t.i <= 0.04\nmse = 0.94\nsamples = 21\nvalue = -0.24", fillcolor="#f5cfb4"] ;
1 -> 11 ;
12 [label="mse = 0.0\nsamples = 10\nvalue = -1.0", fillcolor="#ffffff"] ;
11 -> 12 ;
13 [label="DD.Shift.r.o <= 0.26\nmse = 0.79\nsamples = 11\nvalue = 0.45", fillcolor="#eca36f"] ;
11 -> 13 ;
14 [label="UD.Shift.r.o <= 0.09\nmse = 0.4\nsamples = 9\nvalue = 0.78", fillcolor="#e88f4f"] ;
13 -> 14 ;
15 [label="mse = 0.0\nsamples = 1\nvalue = -1.0", fillcolor="#ffffff"] ;
14 -> 15 ;
16 [label="mse = 0.0\nsamples = 8\nvalue = 1.0", fillcolor="#e58139"] ;
14 -> 16 ;
17 [label="mse = 0.0\nsamples = 2\nvalue = -1.0", fillcolor="#ffffff"] ;
13 -> 17 ;
18 [label="DD.five.Shift.r <= 0.38\nmse = 0.38\nsamples = 262\nvalue = -0.79", fillcolor="#fcf2ea"] ;
0 -> 18 [labeldistance=2.5, labelangle=-45, headlabel="False"] ;
19 [label="UD.l.Return <= 0.18\nmse = 0.93\nsamples = 46\nvalue = -0.26", fillcolor="#f5d0b6"] ;
18 -> 19 ;
20 [label="H.Return <= 0.11\nmse = 0.25\nsamples = 15\nvalue = -0.87", fillcolor="#fdf7f2"] ;
19 -> 20 ;
21 [label="mse = 0.0\nsamples = 12\nvalue = -1.0", fillcolor="#ffffff"] ;
20 -> 21 ;
22 [label="mse = 0.89\nsamples = 3\nvalue = -0.33", fillcolor="#f6d5bd"] ;
20 -> 22 ;
23 [label="DD.period.t <= 0.26\nmse = 1.0\nsamples = 31\nvalue = 0.03", fillcolor="#f2be99"] ;
19 -> 23 ;
24 [label="H.t <= 0.07\nmse = 0.58\nsamples = 17\nvalue = 0.65", fillcolor="#ea975c"] ;
23 -> 24 ;
25 [label="mse = 0.0\nsamples = 3\nvalue = -1.0", fillcolor="#ffffff"] ;
24 -> 25 ;
26 [label="mse = 0.0\nsamples = 14\nvalue = 1.0", fillcolor="#e58139"] ;
24 -> 26 ;
27 [label="DD.five.Shift.r <= 0.31\nmse = 0.49\nsamples = 14\nvalue = -0.71", fillcolor="#fbede3"] ;
23 -> 27 ;
28 [label="mse = 1.0\nsamples = 4\nvalue = 0.0", fillcolor="#f2c09c"] ;
27 -> 28 ;
29 [label="mse = 0.0\nsamples = 10\nvalue = -1.0", fillcolor="#ffffff"] ;
27 -> 29 ;
30 [label="DD.i.e <= 1.13\nmse = 0.19\nsamples = 216\nvalue = -0.9", fillcolor="#fef9f5"] ;
18 -> 30 ;
31 [label="H.i <= 0.08\nmse = 0.16\nsamples = 213\nvalue = -0.92", fillcolor="#fefaf7"] ;
30 -> 31 ;
32 [label="mse = 0.0\nsamples = 123\nvalue = -1.0", fillcolor="#ffffff"] ;
31 -> 32 ;
33 [label="DD.e.five <= 0.49\nmse = 0.36\nsamples = 90\nvalue = -0.8", fillcolor="#fcf2eb"] ;
31 -> 33 ;
34 [label="H.o <= 0.09\nmse = 0.73\nsamples = 29\nvalue = -0.52", fillcolor="#f9e1cf"] ;
33 -> 34 ;
35 [label="DD.a.n <= 0.17\nmse = 0.95\nsamples = 18\nvalue = -0.22", fillcolor="#f5ceb2"] ;
34 -> 35 ;
36 [label="mse = 0.0\nsamples = 5\nvalue = -1.0", fillcolor="#ffffff"] ;
35 -> 36 ;
37 [label="UD.i.e <= 0.04\nmse = 0.99\nsamples = 13\nvalue = 0.08", fillcolor="#f1bb94"] ;
35 -> 37 ;
38 [label="mse = 0.0\nsamples = 4\nvalue = -1.0", fillcolor="#ffffff"] ;
37 -> 38 ;
39 [label="UD.e.five <= 0.24\nmse = 0.69\nsamples = 9\nvalue = 0.56", fillcolor="#eb9d65"] ;
37 -> 39 ;
40 [label="mse = 0.0\nsamples = 1\nvalue = -1.0", fillcolor="#ffffff"] ;
39 -> 40 ;
41 [label="DD.Shift.r.o <= 0.17\nmse = 0.44\nsamples = 8\nvalue = 0.75", fillcolor="#e89152"] ;
39 -> 41 ;
42 [label="mse = 0.0\nsamples = 1\nvalue = -1.0", fillcolor="#ffffff"] ;
41 -> 42 ;
43 [label="mse = 0.0\nsamples = 7\nvalue = 1.0", fillcolor="#e58139"] ;
41 -> 43 ;
44 [label="mse = 0.0\nsamples = 11\nvalue = -1.0", fillcolor="#ffffff"] ;
34 -> 44 ;
45 [label="UD.t.i <= 0.1\nmse = 0.13\nsamples = 61\nvalue = -0.93", fillcolor="#fefbf9"] ;
33 -> 45 ;
46 [label="mse = 0.0\nsamples = 43\nvalue = -1.0", fillcolor="#ffffff"] ;
45 -> 46 ;
47 [label="DD.a.n <= 0.14\nmse = 0.4\nsamples = 18\nvalue = -0.78", fillcolor="#fcf1e9"] ;
45 -> 47 ;
48 [label="mse = 0.0\nsamples = 1\nvalue = 1.0", fillcolor="#e58139"] ;
47 -> 48 ;
49 [label="DD.Shift.r.o <= 0.22\nmse = 0.22\nsamples = 17\nvalue = -0.88", fillcolor="#fdf8f3"] ;
47 -> 49 ;
50 [label="mse = 0.89\nsamples = 3\nvalue = -0.33", fillcolor="#f6d5bd"] ;
49 -> 50 ;
51 [label="mse = 0.0\nsamples = 14\nvalue = -1.0", fillcolor="#ffffff"] ;
49 -> 51 ;
52 [label="mse = 0.89\nsamples = 3\nvalue = 0.33", fillcolor="#eeab7b"] ;
30 -> 52 ;
}