digraph Tree {
node [shape=box, style="filled, rounded", color="black", fontname=helvetica] ;
edge [fontname=helvetica] ;
0 [label="H.o <= 0.1\nmse = 0.99\nsamples = 450\nvalue = -0.08", fillcolor="#f3c5a4"] ;
1 [label="H.Shift.r <= 0.1\nmse = 0.23\nsamples = 196\nvalue = -0.88", fillcolor="#fdf7f3"] ;
0 -> 1 [labeldistance=2.5, labelangle=45, headlabel="True"] ;
2 [label="H.Shift.r <= 0.09\nmse = 0.03\nsamples = 139\nvalue = -0.99", fillcolor="#fffefe"] ;
1 -> 2 ;
3 [label="mse = 0.0\nsamples = 118\nvalue = -1.0", fillcolor="#ffffff"] ;
2 -> 3 ;
4 [label="UD.a.n <= 0.15\nmse = 0.18\nsamples = 21\nvalue = -0.9", fillcolor="#fef9f6"] ;
2 -> 4 ;
5 [label="mse = 0.0\nsamples = 16\nvalue = -1.0", fillcolor="#ffffff"] ;
4 -> 5 ;
6 [label="UD.Shift.r.o <= 0.18\nmse = 0.64\nsamples = 5\nvalue = -0.6", fillcolor="#fae6d7"] ;
4 -> 6 ;
7 [label="mse = 0.0\nsamples = 3\nvalue = -1.0", fillcolor="#ffffff"] ;
6 -> 7 ;
8 [label="mse = 1.0\nsamples = 2\nvalue = 0.0", fillcolor="#f2c09c"] ;
6 -> 8 ;
9 [label="UD.i.e <= -0.0\nmse = 0.62\nsamples = 57\nvalue = -0.61", fillcolor="#fae7d9"] ;
1 -> 9 ;
10 [label="H.a <= 0.1\nmse = 0.36\nsamples = 10\nvalue = 0.8", fillcolor="#e88e4d"] ;
9 -> 10 ;
11 [label="mse = 0.0\nsamples = 1\nvalue = -1.0", fillcolor="#ffffff"] ;
10 -> 11 ;
12 [label="mse = 0.0\nsamples = 9\nvalue = 1.0", fillcolor="#e58139"] ;
10 -> 12 ;
13 [label="UD.t.i <= 0.42\nmse = 0.16\nsamples = 47\nvalue = -0.91", fillcolor="#fefaf7"] ;
9 -> 13 ;
14 [label="UD.l.Return <= 0.18\nmse = 0.09\nsamples = 46\nvalue = -0.96", fillcolor="#fefcfb"] ;
13 -> 14 ;
15 [label="UD.e.five <= 0.72\nmse = 0.4\nsamples = 9\nvalue = -0.78", fillcolor="#fcf1e9"] ;
14 -> 15 ;
16 [label="mse = 0.0\nsamples = 8\nvalue = -1.0", fillcolor="#ffffff"] ;
15 -> 16 ;
17 [label="mse = 0.0\nsamples = 1\nvalue = 1.0", fillcolor="#e58139"] ;
15 -> 17 ;
18 [label="mse = 0.0\nsamples = 37\nvalue = -1.0", fillcolor="#ffffff"] ;
14 -> 18 ;
19 [label="mse = 0.0\nsamples = 1\nvalue = 1.0", fillcolor="#e58139"] ;
13 -> 19 ;
20 [label="DD.n.l <= 0.21\nmse = 0.71\nsamples = 254\nvalue = 0.54", fillcolor="#eb9e67"] ;
0 -> 20 [labeldistance=2.5, labelangle=-45, headlabel="False"] ;
21 [label="DD.t.i <= 0.13\nmse = 0.4\nsamples = 206\nvalue = 0.78", fillcolor="#e88f4f"] ;
20 -> 21 ;
22 [label="mse = 0.0\nsamples = 9\nvalue = -1.0", fillcolor="#ffffff"] ;
21 -> 22 ;
23 [label="H.five <= 0.08\nmse = 0.26\nsamples = 197\nvalue = 0.86", fillcolor="#e78a47"] ;
21 -> 23 ;
24 [label="UD.l.Return <= 0.1\nmse = 0.11\nsamples = 185\nvalue = 0.95", fillcolor="#e6843e"] ;
23 -> 24 ;
25 [label="mse = 0.0\nsamples = 1\nvalue = -1.0", fillcolor="#ffffff"] ;
24 -> 25 ;
26 [label="UD.o.a <= 0.04\nmse = 0.09\nsamples = 184\nvalue = 0.96", fillcolor="#e6843d"] ;
24 -> 26 ;
27 [label="mse = 0.0\nsamples = 175\nvalue = 1.0", fillcolor="#e58139"] ;
26 -> 27 ;
28 [label="H.n <= 0.09\nmse = 0.99\nsamples = 9\nvalue = 0.11", fillcolor="#f1b991"] ;
26 -> 28 ;
29 [label="DD.n.l <= 0.17\nmse = 0.89\nsamples = 6\nvalue = -0.33", fillcolor="#f6d5bd"] ;
28 -> 29 ;
30 [label="mse = 0.0\nsamples = 2\nvalue = 1.0", fillcolor="#e58139"] ;
29 -> 30 ;
31 [label="mse = 0.0\nsamples = 4\nvalue = -1.0", fillcolor="#ffffff"] ;
29 -> 31 ;
32 [label="mse = 0.0\nsamples = 3\nvalue = 1.0", fillcolor="#e58139"] ;
28 -> 32 ;
33 [label="H.n <= 0.1\nmse = 0.75\nsamples = 12\nvalue = -0.5", fillcolor="#f8e0ce"] ;
23 -> 33 ;
34 [label="mse = 0.0\nsamples = 8\nvalue = -1.0", fillcolor="#ffffff"] ;
33 -> 34 ;
35 [label="mse = 0.75\nsamples = 4\nvalue = 0.5", fillcolor="#eca06a"] ;
33 -> 35 ;
36 [label="DD.i.e <= 0.11\nmse = 0.75\nsamples = 48\nvalue = -0.5", fillcolor="#f8e0ce"] ;
20 -> 36 ;
37 [label="mse = 0.0\nsamples = 8\nvalue = 1.0", fillcolor="#e58139"] ;
36 -> 37 ;
38 [label="DD.o.a <= 0.11\nmse = 0.36\nsamples = 40\nvalue = -0.8", fillcolor="#fcf2eb"] ;
36 -> 38 ;
39 [label="H.period <= 0.16\nmse = 0.64\nsamples = 5\nvalue = 0.6", fillcolor="#ea9a61"] ;
38 -> 39 ;
40 [label="mse = 0.0\nsamples = 4\nvalue = 1.0", fillcolor="#e58139"] ;
39 -> 40 ;
41 [label="mse = 0.0\nsamples = 1\nvalue = -1.0", fillcolor="#ffffff"] ;
39 -> 41 ;
42 [label="mse = 0.0\nsamples = 35\nvalue = -1.0", fillcolor="#ffffff"] ;
38 -> 42 ;
}