digraph Tree {
node [shape=box, style="filled, rounded", color="black", fontname=helvetica] ;
edge [fontname=helvetica] ;
0 [label="DD.n.l <= 0.13\nmse = 0.97\nsamples = 450\nvalue = -0.16", fillcolor="#f4caac"] ;
1 [label="H.i <= 0.08\nmse = 0.31\nsamples = 190\nvalue = 0.83", fillcolor="#e78c4a"] ;
0 -> 1 [labeldistance=2.5, labelangle=45, headlabel="True"] ;
2 [label="DD.a.n <= 0.2\nmse = 0.11\nsamples = 179\nvalue = 0.94", fillcolor="#e6853f"] ;
1 -> 2 ;
3 [label="H.a <= 0.05\nmse = 0.02\nsamples = 175\nvalue = 0.99", fillcolor="#e5823a"] ;
2 -> 3 ;
4 [label="mse = 0.89\nsamples = 3\nvalue = 0.33", fillcolor="#eeab7b"] ;
3 -> 4 ;
5 [label="mse = 0.0\nsamples = 172\nvalue = 1.0", fillcolor="#e58139"] ;
3 -> 5 ;
6 [label="mse = 0.0\nsamples = 4\nvalue = -1.0", fillcolor="#ffffff"] ;
2 -> 6 ;
7 [label="mse = 0.0\nsamples = 11\nvalue = -1.0", fillcolor="#ffffff"] ;
1 -> 7 ;
8 [label="DD.i.e <= 0.1\nmse = 0.2\nsamples = 260\nvalue = -0.89", fillcolor="#fef8f4"] ;
0 -> 8 [labeldistance=2.5, labelangle=-45, headlabel="False"] ;
9 [label="UD.n.l <= 0.09\nmse = 0.86\nsamples = 32\nvalue = -0.38", fillcolor="#f7d8c1"] ;
8 -> 9 ;
10 [label="H.o <= 0.11\nmse = 0.44\nsamples = 8\nvalue = 0.75", fillcolor="#e89152"] ;
9 -> 10 ;
11 [label="mse = 0.0\nsamples = 7\nvalue = 1.0", fillcolor="#e58139"] ;
10 -> 11 ;
12 [label="mse = 0.0\nsamples = 1\nvalue = -1.0", fillcolor="#ffffff"] ;
10 -> 12 ;
13 [label="UD.five.Shift.r <= 0.27\nmse = 0.44\nsamples = 24\nvalue = -0.75", fillcolor="#fcefe6"] ;
9 -> 13 ;
14 [label="UD.n.l <= 0.12\nmse = 1.0\nsamples = 6\nvalue = 0.0", fillcolor="#f2c09c"] ;
13 -> 14 ;
15 [label="mse = 0.0\nsamples = 2\nvalue = -1.0", fillcolor="#ffffff"] ;
14 -> 15 ;
16 [label="mse = 0.75\nsamples = 4\nvalue = 0.5", fillcolor="#eca06a"] ;
14 -> 16 ;
17 [label="mse = 0.0\nsamples = 18\nvalue = -1.0", fillcolor="#ffffff"] ;
13 -> 17 ;
18 [label="DD.period.t <= 0.19\nmse = 0.07\nsamples = 228\nvalue = -0.96", fillcolor="#fffdfc"] ;
8 -> 18 ;
19 [label="DD.period.t <= 0.19\nmse = 0.42\nsamples = 25\nvalue = -0.76", fillcolor="#fcf0e7"] ;
18 -> 19 ;
20 [label="mse = 0.0\nsamples = 21\nvalue = -1.0", fillcolor="#ffffff"] ;
19 -> 20 ;
21 [label="mse = 0.75\nsamples = 4\nvalue = 0.5", fillcolor="#eca06a"] ;
19 -> 21 ;
22 [label="H.i <= 0.04\nmse = 0.02\nsamples = 203\nvalue = -0.99", fillcolor="#fffefe"] ;
18 -> 22 ;
23 [label="UD.n.l <= 0.1\nmse = 0.27\nsamples = 14\nvalue = -0.86", fillcolor="#fdf6f1"] ;
22 -> 23 ;
24 [label="mse = 1.0\nsamples = 2\nvalue = 0.0", fillcolor="#f2c09c"] ;
23 -> 24 ;
25 [label="mse = 0.0\nsamples = 12\nvalue = -1.0", fillcolor="#ffffff"] ;
23 -> 25 ;
26 [label="mse = 0.0\nsamples = 189\nvalue = -1.0", fillcolor="#ffffff"] ;
22 -> 26 ;
}