digraph Tree {
node [shape=box, style="filled, rounded", color="black", fontname=helvetica] ;
edge [fontname=helvetica] ;
0 [label="H.e <= 0.12\nmse = 0.99\nsamples = 450\nvalue = -0.12", fillcolor="#f4c7a7"] ;
1 [label="DD.i.e <= 0.17\nmse = 0.38\nsamples = 241\nvalue = -0.78", fillcolor="#fcf1ea"] ;
0 -> 1 [labeldistance=2.5, labelangle=45, headlabel="True"] ;
2 [label="UD.Shift.r.o <= 0.17\nmse = 0.06\nsamples = 142\nvalue = -0.97", fillcolor="#fffdfc"] ;
1 -> 2 ;
3 [label="mse = 0.0\nsamples = 87\nvalue = -1.0", fillcolor="#ffffff"] ;
2 -> 3 ;
4 [label="H.t <= 0.08\nmse = 0.14\nsamples = 55\nvalue = -0.93", fillcolor="#fefaf8"] ;
2 -> 4 ;
5 [label="mse = 0.0\nsamples = 38\nvalue = -1.0", fillcolor="#ffffff"] ;
4 -> 5 ;
6 [label="DD.Shift.r.o <= 0.27\nmse = 0.42\nsamples = 17\nvalue = -0.76", fillcolor="#fcf0e8"] ;
4 -> 6 ;
7 [label="mse = 0.0\nsamples = 1\nvalue = 1.0", fillcolor="#e58139"] ;
6 -> 7 ;
8 [label="H.o <= 0.13\nmse = 0.23\nsamples = 16\nvalue = -0.88", fillcolor="#fdf7f3"] ;
6 -> 8 ;
9 [label="mse = 0.0\nsamples = 14\nvalue = -1.0", fillcolor="#ffffff"] ;
8 -> 9 ;
10 [label="mse = 1.0\nsamples = 2\nvalue = 0.0", fillcolor="#f2c09c"] ;
8 -> 10 ;
11 [label="H.o <= 0.1\nmse = 0.73\nsamples = 99\nvalue = -0.52", fillcolor="#f9e0cf"] ;
1 -> 11 ;
12 [label="H.i <= 0.12\nmse = 0.07\nsamples = 57\nvalue = -0.96", fillcolor="#fffdfc"] ;
11 -> 12 ;
13 [label="mse = 0.0\nsamples = 56\nvalue = -1.0", fillcolor="#ffffff"] ;
12 -> 13 ;
14 [label="mse = 0.0\nsamples = 1\nvalue = 1.0", fillcolor="#e58139"] ;
12 -> 14 ;
15 [label="UD.five.Shift.r <= 0.38\nmse = 0.99\nsamples = 42\nvalue = 0.1", fillcolor="#f1ba93"] ;
11 -> 15 ;
16 [label="H.i <= 0.07\nmse = 0.51\nsamples = 20\nvalue = 0.7", fillcolor="#e99457"] ;
15 -> 16 ;
17 [label="mse = 0.0\nsamples = 2\nvalue = -1.0", fillcolor="#ffffff"] ;
16 -> 17 ;
18 [label="UD.five.Shift.r <= 0.36\nmse = 0.21\nsamples = 18\nvalue = 0.89", fillcolor="#e68844"] ;
16 -> 18 ;
19 [label="mse = 0.0\nsamples = 15\nvalue = 1.0", fillcolor="#e58139"] ;
18 -> 19 ;
20 [label="mse = 0.89\nsamples = 3\nvalue = 0.33", fillcolor="#eeab7b"] ;
18 -> 20 ;
21 [label="DD.e.five <= 1.23\nmse = 0.79\nsamples = 22\nvalue = -0.45", fillcolor="#f8ddc9"] ;
15 -> 21 ;
22 [label="H.l <= 0.08\nmse = 0.64\nsamples = 20\nvalue = -0.6", fillcolor="#fae6d7"] ;
21 -> 22 ;
23 [label="UD.a.n <= 0.05\nmse = 0.64\nsamples = 5\nvalue = 0.6", fillcolor="#ea9a61"] ;
22 -> 23 ;
24 [label="mse = 0.0\nsamples = 1\nvalue = -1.0", fillcolor="#ffffff"] ;
23 -> 24 ;
25 [label="mse = 0.0\nsamples = 4\nvalue = 1.0", fillcolor="#e58139"] ;
23 -> 25 ;
26 [label="mse = 0.0\nsamples = 15\nvalue = -1.0", fillcolor="#ffffff"] ;
22 -> 26 ;
27 [label="mse = 0.0\nsamples = 2\nvalue = 1.0", fillcolor="#e58139"] ;
21 -> 27 ;
28 [label="UD.o.a <= 0.16\nmse = 0.57\nsamples = 209\nvalue = 0.66", fillcolor="#e9975b"] ;
0 -> 28 [labeldistance=2.5, labelangle=-45, headlabel="False"] ;
29 [label="H.five <= 0.11\nmse = 0.38\nsamples = 188\nvalue = 0.79", fillcolor="#e88e4e"] ;
28 -> 29 ;
30 [label="H.Shift.r <= 0.12\nmse = 0.25\nsamples = 176\nvalue = 0.86", fillcolor="#e78a46"] ;
29 -> 30 ;
31 [label="UD.a.n <= -0.04\nmse = 0.12\nsamples = 166\nvalue = 0.94", fillcolor="#e6853f"] ;
30 -> 31 ;
32 [label="mse = 0.0\nsamples = 1\nvalue = -1.0", fillcolor="#ffffff"] ;
31 -> 32 ;
33 [label="UD.l.Return <= 0.17\nmse = 0.09\nsamples = 165\nvalue = 0.95", fillcolor="#e6843e"] ;
31 -> 33 ;
34 [label="mse = 0.0\nsamples = 1\nvalue = -1.0", fillcolor="#ffffff"] ;
33 -> 34 ;
35 [label="H.n <= 0.06\nmse = 0.07\nsamples = 164\nvalue = 0.96", fillcolor="#e5833d"] ;
33 -> 35 ;
36 [label="mse = 1.0\nsamples = 4\nvalue = 0.0", fillcolor="#f2c09c"] ;
35 -> 36 ;
37 [label="DD.e.five <= 0.85\nmse = 0.02\nsamples = 160\nvalue = 0.99", fillcolor="#e5823a"] ;
35 -> 37 ;
38 [label="mse = 0.0\nsamples = 148\nvalue = 1.0", fillcolor="#e58139"] ;
37 -> 38 ;
39 [label="DD.o.a <= 0.2\nmse = 0.31\nsamples = 12\nvalue = 0.83", fillcolor="#e78c49"] ;
37 -> 39 ;
40 [label="mse = 0.0\nsamples = 11\nvalue = 1.0", fillcolor="#e58139"] ;
39 -> 40 ;
41 [label="mse = 0.0\nsamples = 1\nvalue = -1.0", fillcolor="#ffffff"] ;
39 -> 41 ;
42 [label="DD.n.l <= 0.3\nmse = 0.84\nsamples = 10\nvalue = -0.4", fillcolor="#f7d9c4"] ;
30 -> 42 ;
43 [label="mse = 0.75\nsamples = 4\nvalue = 0.5", fillcolor="#eca06a"] ;
42 -> 43 ;
44 [label="mse = 0.0\nsamples = 6\nvalue = -1.0", fillcolor="#ffffff"] ;
42 -> 44 ;
45 [label="H.a <= 0.12\nmse = 0.89\nsamples = 12\nvalue = -0.33", fillcolor="#f6d5bd"] ;
29 -> 45 ;
46 [label="mse = 0.0\nsamples = 4\nvalue = 1.0", fillcolor="#e58139"] ;
45 -> 46 ;
47 [label="mse = 0.0\nsamples = 8\nvalue = -1.0", fillcolor="#ffffff"] ;
45 -> 47 ;
48 [label="UD.e.five <= 0.59\nmse = 0.73\nsamples = 21\nvalue = -0.52", fillcolor="#f9e1d0"] ;
28 -> 48 ;
49 [label="DD.e.five <= 0.51\nmse = 0.99\nsamples = 9\nvalue = 0.11", fillcolor="#f1b991"] ;
48 -> 49 ;
50 [label="UD.o.a <= 0.55\nmse = 0.64\nsamples = 5\nvalue = -0.6", fillcolor="#fae6d7"] ;
49 -> 50 ;
51 [label="mse = 0.0\nsamples = 4\nvalue = -1.0", fillcolor="#ffffff"] ;
50 -> 51 ;
52 [label="mse = 0.0\nsamples = 1\nvalue = 1.0", fillcolor="#e58139"] ;
50 -> 52 ;
53 [label="mse = 0.0\nsamples = 4\nvalue = 1.0", fillcolor="#e58139"] ;
49 -> 53 ;
54 [label="mse = 0.0\nsamples = 12\nvalue = -1.0", fillcolor="#ffffff"] ;
48 -> 54 ;
}