digraph Tree {
node [shape=box, style="filled, rounded", color="black", fontname=helvetica] ;
edge [fontname=helvetica] ;
0 [label="H.a <= 0.11\nmse = 0.97\nsamples = 450\nvalue = -0.17", fillcolor="#f4cbad"] ;
1 [label="DD.a.n <= 0.2\nmse = 0.7\nsamples = 251\nvalue = -0.55", fillcolor="#f9e2d2"] ;
0 -> 1 [labeldistance=2.5, labelangle=45, headlabel="True"] ;
2 [label="UD.l.Return <= 0.19\nmse = 0.86\nsamples = 180\nvalue = -0.38", fillcolor="#f7d8c1"] ;
1 -> 2 ;
3 [label="DD.period.t <= 0.14\nmse = 0.2\nsamples = 56\nvalue = -0.89", fillcolor="#fef8f4"] ;
2 -> 3 ;
4 [label="mse = 1.0\nsamples = 4\nvalue = 0.0", fillcolor="#f2c09c"] ;
3 -> 4 ;
5 [label="H.l <= 0.1\nmse = 0.08\nsamples = 52\nvalue = -0.96", fillcolor="#fffdfb"] ;
3 -> 5 ;
6 [label="mse = 0.0\nsamples = 47\nvalue = -1.0", fillcolor="#ffffff"] ;
5 -> 6 ;
7 [label="H.l <= 0.11\nmse = 0.64\nsamples = 5\nvalue = -0.6", fillcolor="#fae6d7"] ;
5 -> 7 ;
8 [label="mse = 0.0\nsamples = 1\nvalue = 1.0", fillcolor="#e58139"] ;
7 -> 8 ;
9 [label="mse = 0.0\nsamples = 4\nvalue = -1.0", fillcolor="#ffffff"] ;
7 -> 9 ;
10 [label="UD.Shift.r.o <= 0.09\nmse = 0.98\nsamples = 124\nvalue = -0.15", fillcolor="#f4c9aa"] ;
2 -> 10 ;
11 [label="mse = 0.0\nsamples = 16\nvalue = -1.0", fillcolor="#ffffff"] ;
10 -> 11 ;
12 [label="H.Return <= 0.08\nmse = 1.0\nsamples = 108\nvalue = -0.02", fillcolor="#f2c19e"] ;
10 -> 12 ;
13 [label="H.period <= 0.08\nmse = 0.98\nsamples = 82\nvalue = 0.15", fillcolor="#f0b78e"] ;
12 -> 13 ;
14 [label="DD.i.e <= 0.13\nmse = 0.6\nsamples = 27\nvalue = -0.63", fillcolor="#fae8da"] ;
13 -> 14 ;
15 [label="DD.t.i <= 0.1\nmse = 0.94\nsamples = 8\nvalue = -0.25", fillcolor="#f5d0b5"] ;
14 -> 15 ;
16 [label="mse = 0.0\nsamples = 3\nvalue = -1.0", fillcolor="#ffffff"] ;
15 -> 16 ;
17 [label="H.Return <= 0.07\nmse = 0.96\nsamples = 5\nvalue = 0.2", fillcolor="#efb388"] ;
15 -> 17 ;
18 [label="mse = 0.0\nsamples = 3\nvalue = 1.0", fillcolor="#e58139"] ;
17 -> 18 ;
19 [label="mse = 0.0\nsamples = 2\nvalue = -1.0", fillcolor="#ffffff"] ;
17 -> 19 ;
20 [label="DD.five.Shift.r <= 0.4\nmse = 0.38\nsamples = 19\nvalue = -0.79", fillcolor="#fcf2ea"] ;
14 -> 20 ;
21 [label="mse = 0.0\nsamples = 2\nvalue = 1.0", fillcolor="#e58139"] ;
20 -> 21 ;
22 [label="mse = 0.0\nsamples = 17\nvalue = -1.0", fillcolor="#ffffff"] ;
20 -> 22 ;
23 [label="DD.Shift.r.o <= 0.35\nmse = 0.72\nsamples = 55\nvalue = 0.53", fillcolor="#eb9f68"] ;
13 -> 23 ;
24 [label="H.Return <= 0.07\nmse = 0.35\nsamples = 41\nvalue = 0.8", fillcolor="#e88d4c"] ;
23 -> 24 ;
25 [label="mse = 0.0\nsamples = 21\nvalue = 1.0", fillcolor="#e58139"] ;
24 -> 25 ;
26 [label="UD.a.n <= 0.07\nmse = 0.64\nsamples = 20\nvalue = 0.6", fillcolor="#ea9a61"] ;
24 -> 26 ;
27 [label="mse = 0.0\nsamples = 12\nvalue = 1.0", fillcolor="#e58139"] ;
26 -> 27 ;
28 [label="H.five <= 0.07\nmse = 1.0\nsamples = 8\nvalue = 0.0", fillcolor="#f2c09c"] ;
26 -> 28 ;
29 [label="mse = 0.0\nsamples = 4\nvalue = 1.0", fillcolor="#e58139"] ;
28 -> 29 ;
30 [label="mse = 0.0\nsamples = 4\nvalue = -1.0", fillcolor="#ffffff"] ;
28 -> 30 ;
31 [label="UD.o.a <= 0.12\nmse = 0.92\nsamples = 14\nvalue = -0.29", fillcolor="#f6d2b8"] ;
23 -> 31 ;
32 [label="UD.t.i <= 0.48\nmse = 0.44\nsamples = 8\nvalue = -0.75", fillcolor="#fcefe6"] ;
31 -> 32 ;
33 [label="mse = 0.0\nsamples = 7\nvalue = -1.0", fillcolor="#ffffff"] ;
32 -> 33 ;
34 [label="mse = 0.0\nsamples = 1\nvalue = 1.0", fillcolor="#e58139"] ;
32 -> 34 ;
35 [label="DD.t.i <= 0.13\nmse = 0.89\nsamples = 6\nvalue = 0.33", fillcolor="#eeab7b"] ;
31 -> 35 ;
36 [label="mse = 0.0\nsamples = 2\nvalue = -1.0", fillcolor="#ffffff"] ;
35 -> 36 ;
37 [label="mse = 0.0\nsamples = 4\nvalue = 1.0", fillcolor="#e58139"] ;
35 -> 37 ;
38 [label="DD.Shift.r.o <= 0.31\nmse = 0.71\nsamples = 26\nvalue = -0.54", fillcolor="#f9e2d1"] ;
12 -> 38 ;
39 [label="DD.e.five <= 0.96\nmse = 0.22\nsamples = 17\nvalue = -0.88", fillcolor="#fdf8f3"] ;
38 -> 39 ;
40 [label="mse = 0.0\nsamples = 15\nvalue = -1.0", fillcolor="#ffffff"] ;
39 -> 40 ;
41 [label="mse = 1.0\nsamples = 2\nvalue = 0.0", fillcolor="#f2c09c"] ;
39 -> 41 ;
42 [label="DD.n.l <= 0.46\nmse = 0.99\nsamples = 9\nvalue = 0.11", fillcolor="#f1b991"] ;
38 -> 42 ;
43 [label="mse = 0.0\nsamples = 5\nvalue = 1.0", fillcolor="#e58139"] ;
42 -> 43 ;
44 [label="mse = 0.0\nsamples = 4\nvalue = -1.0", fillcolor="#ffffff"] ;
42 -> 44 ;
45 [label="UD.e.five <= 0.22\nmse = 0.06\nsamples = 71\nvalue = -0.97", fillcolor="#fffdfc"] ;
1 -> 45 ;
46 [label="UD.t.i <= 0.06\nmse = 0.49\nsamples = 7\nvalue = -0.71", fillcolor="#fbede3"] ;
45 -> 46 ;
47 [label="mse = 1.0\nsamples = 2\nvalue = 0.0", fillcolor="#f2c09c"] ;
46 -> 47 ;
48 [label="mse = 0.0\nsamples = 5\nvalue = -1.0", fillcolor="#ffffff"] ;
46 -> 48 ;
49 [label="mse = 0.0\nsamples = 64\nvalue = -1.0", fillcolor="#ffffff"] ;
45 -> 49 ;
50 [label="UD.e.five <= 0.33\nmse = 0.91\nsamples = 199\nvalue = 0.31", fillcolor="#eead7e"] ;
0 -> 50 [labeldistance=2.5, labelangle=-45, headlabel="False"] ;
51 [label="H.t <= 0.11\nmse = 0.45\nsamples = 124\nvalue = 0.74", fillcolor="#e89153"] ;
50 -> 51 ;
52 [label="UD.t.i <= 0.02\nmse = 0.34\nsamples = 119\nvalue = 0.82", fillcolor="#e78d4b"] ;
51 -> 52 ;
53 [label="mse = 0.0\nsamples = 5\nvalue = -1.0", fillcolor="#ffffff"] ;
52 -> 53 ;
54 [label="H.o <= 0.12\nmse = 0.2\nsamples = 114\nvalue = 0.89", fillcolor="#e68843"] ;
52 -> 54 ;
55 [label="DD.o.a <= 0.45\nmse = 0.17\nsamples = 113\nvalue = 0.91", fillcolor="#e68742"] ;
54 -> 55 ;
56 [label="DD.five.Shift.r <= 0.56\nmse = 0.07\nsamples = 110\nvalue = 0.96", fillcolor="#e5833d"] ;
55 -> 56 ;
57 [label="mse = 0.0\nsamples = 100\nvalue = 1.0", fillcolor="#e58139"] ;
56 -> 57 ;
58 [label="DD.o.a <= 0.09\nmse = 0.64\nsamples = 10\nvalue = 0.6", fillcolor="#ea9a61"] ;
56 -> 58 ;
59 [label="mse = 0.0\nsamples = 1\nvalue = -1.0", fillcolor="#ffffff"] ;
58 -> 59 ;
60 [label="H.e <= 0.08\nmse = 0.4\nsamples = 9\nvalue = 0.78", fillcolor="#e88f4f"] ;
58 -> 60 ;
61 [label="mse = 1.0\nsamples = 2\nvalue = 0.0", fillcolor="#f2c09c"] ;
60 -> 61 ;
62 [label="mse = 0.0\nsamples = 7\nvalue = 1.0", fillcolor="#e58139"] ;
60 -> 62 ;
63 [label="mse = 0.0\nsamples = 3\nvalue = -1.0", fillcolor="#ffffff"] ;
55 -> 63 ;
64 [label="mse = 0.0\nsamples = 1\nvalue = -1.0", fillcolor="#ffffff"] ;
54 -> 64 ;
65 [label="mse = 0.0\nsamples = 5\nvalue = -1.0", fillcolor="#ffffff"] ;
51 -> 65 ;
66 [label="H.o <= 0.09\nmse = 0.83\nsamples = 75\nvalue = -0.41", fillcolor="#f7dac5"] ;
50 -> 66 ;
67 [label="DD.five.Shift.r <= 0.54\nmse = 0.87\nsamples = 25\nvalue = 0.36", fillcolor="#eda978"] ;
66 -> 67 ;
68 [label="H.Shift.r <= 0.08\nmse = 0.23\nsamples = 16\nvalue = 0.88", fillcolor="#e78945"] ;
67 -> 68 ;
69 [label="mse = 0.0\nsamples = 1\nvalue = -1.0", fillcolor="#ffffff"] ;
68 -> 69 ;
70 [label="mse = 0.0\nsamples = 15\nvalue = 1.0", fillcolor="#e58139"] ;
68 -> 70 ;
71 [label="H.o <= 0.08\nmse = 0.69\nsamples = 9\nvalue = -0.56", fillcolor="#f9e3d3"] ;
67 -> 71 ;
72 [label="mse = 0.0\nsamples = 7\nvalue = -1.0", fillcolor="#ffffff"] ;
71 -> 72 ;
73 [label="mse = 0.0\nsamples = 2\nvalue = 1.0", fillcolor="#e58139"] ;
71 -> 73 ;
74 [label="H.n <= 0.14\nmse = 0.36\nsamples = 50\nvalue = -0.8", fillcolor="#fcf2eb"] ;
66 -> 74 ;
75 [label="UD.period.t <= 0.06\nmse = 0.24\nsamples = 46\nvalue = -0.87", fillcolor="#fdf7f2"] ;
74 -> 75 ;
76 [label="mse = 1.0\nsamples = 2\nvalue = 0.0", fillcolor="#f2c09c"] ;
75 -> 76 ;
77 [label="H.a <= 0.14\nmse = 0.17\nsamples = 44\nvalue = -0.91", fillcolor="#fef9f6"] ;
75 -> 77 ;
78 [label="mse = 0.0\nsamples = 29\nvalue = -1.0", fillcolor="#ffffff"] ;
77 -> 78 ;
79 [label="H.i <= 0.06\nmse = 0.46\nsamples = 15\nvalue = -0.73", fillcolor="#fceee5"] ;
77 -> 79 ;
80 [label="mse = 0.0\nsamples = 1\nvalue = 1.0", fillcolor="#e58139"] ;
79 -> 80 ;
81 [label="DD.Shift.r.o <= 0.22\nmse = 0.27\nsamples = 14\nvalue = -0.86", fillcolor="#fdf6f1"] ;
79 -> 81 ;
82 [label="mse = 0.0\nsamples = 1\nvalue = 1.0", fillcolor="#e58139"] ;
81 -> 82 ;
83 [label="mse = 0.0\nsamples = 13\nvalue = -1.0", fillcolor="#ffffff"] ;
81 -> 83 ;
84 [label="mse = 1.0\nsamples = 4\nvalue = 0.0", fillcolor="#f2c09c"] ;
74 -> 84 ;
}