digraph Tree {
node [shape=box, style="filled, rounded", color="black", fontname=helvetica] ;
edge [fontname=helvetica] ;
0 [label="DD.period.t <= 0.16\nmse = 0.99\nsamples = 450\nvalue = -0.09", fillcolor="#f3c6a5"] ;
1 [label="DD.l.Return <= 0.62\nmse = 0.17\nsamples = 138\nvalue = 0.91", fillcolor="#e68642"] ;
0 -> 1 [labeldistance=2.5, labelangle=45, headlabel="True"] ;
2 [label="H.period <= 0.09\nmse = 0.09\nsamples = 135\nvalue = 0.96", fillcolor="#e6843d"] ;
1 -> 2 ;
3 [label="DD.t.i <= 0.12\nmse = 0.38\nsamples = 28\nvalue = 0.79", fillcolor="#e88e4e"] ;
2 -> 3 ;
4 [label="mse = 0.0\nsamples = 1\nvalue = -1.0", fillcolor="#ffffff"] ;
3 -> 4 ;
5 [label="DD.n.l <= 0.2\nmse = 0.27\nsamples = 27\nvalue = 0.85", fillcolor="#e78a48"] ;
3 -> 5 ;
6 [label="mse = 0.0\nsamples = 22\nvalue = 1.0", fillcolor="#e58139"] ;
5 -> 6 ;
7 [label="DD.period.t <= 0.12\nmse = 0.96\nsamples = 5\nvalue = 0.2", fillcolor="#efb388"] ;
5 -> 7 ;
8 [label="mse = 0.0\nsamples = 2\nvalue = 1.0", fillcolor="#e58139"] ;
7 -> 8 ;
9 [label="mse = 0.89\nsamples = 3\nvalue = -0.33", fillcolor="#f6d5bd"] ;
7 -> 9 ;
10 [label="mse = 0.0\nsamples = 107\nvalue = 1.0", fillcolor="#e58139"] ;
2 -> 10 ;
11 [label="mse = 0.0\nsamples = 3\nvalue = -1.0", fillcolor="#ffffff"] ;
1 -> 11 ;
12 [label="UD.e.five <= 0.19\nmse = 0.71\nsamples = 312\nvalue = -0.54", fillcolor="#f9e2d1"] ;
0 -> 12 [labeldistance=2.5, labelangle=-45, headlabel="False"] ;
13 [label="UD.period.t <= 0.24\nmse = 0.91\nsamples = 46\nvalue = 0.3", fillcolor="#eead7e"] ;
12 -> 13 ;
14 [label="DD.five.Shift.r <= 0.35\nmse = 0.74\nsamples = 37\nvalue = 0.51", fillcolor="#eba069"] ;
13 -> 14 ;
15 [label="mse = 0.0\nsamples = 23\nvalue = 1.0", fillcolor="#e58139"] ;
14 -> 15 ;
16 [label="UD.t.i <= 0.07\nmse = 0.92\nsamples = 14\nvalue = -0.29", fillcolor="#f6d2b8"] ;
14 -> 16 ;
17 [label="mse = 0.0\nsamples = 8\nvalue = -1.0", fillcolor="#ffffff"] ;
16 -> 17 ;
18 [label="UD.five.Shift.r <= 0.28\nmse = 0.56\nsamples = 6\nvalue = 0.67", fillcolor="#e9965a"] ;
16 -> 18 ;
19 [label="mse = 0.0\nsamples = 1\nvalue = -1.0", fillcolor="#ffffff"] ;
18 -> 19 ;
20 [label="mse = 0.0\nsamples = 5\nvalue = 1.0", fillcolor="#e58139"] ;
18 -> 20 ;
21 [label="UD.l.Return <= 0.14\nmse = 0.69\nsamples = 9\nvalue = -0.56", fillcolor="#f9e3d3"] ;
13 -> 21 ;
22 [label="mse = 0.0\nsamples = 2\nvalue = 1.0", fillcolor="#e58139"] ;
21 -> 22 ;
23 [label="mse = 0.0\nsamples = 7\nvalue = -1.0", fillcolor="#ffffff"] ;
21 -> 23 ;
24 [label="UD.Shift.r.o <= 0.11\nmse = 0.53\nsamples = 266\nvalue = -0.68", fillcolor="#fbebe0"] ;
12 -> 24 ;
25 [label="UD.l.Return <= 0.17\nmse = 0.99\nsamples = 76\nvalue = -0.11", fillcolor="#f3c7a6"] ;
24 -> 25 ;
26 [label="DD.a.n <= 0.16\nmse = 0.93\nsamples = 49\nvalue = 0.27", fillcolor="#efaf82"] ;
25 -> 26 ;
27 [label="H.o <= 0.08\nmse = 0.79\nsamples = 41\nvalue = 0.46", fillcolor="#eca36e"] ;
26 -> 27 ;
28 [label="H.t <= 0.07\nmse = 0.4\nsamples = 27\nvalue = 0.78", fillcolor="#e88f4f"] ;
27 -> 28 ;
29 [label="H.o <= 0.06\nmse = 1.0\nsamples = 6\nvalue = 0.0", fillcolor="#f2c09c"] ;
28 -> 29 ;
30 [label="mse = 0.0\nsamples = 2\nvalue = 1.0", fillcolor="#e58139"] ;
29 -> 30 ;
31 [label="mse = 0.75\nsamples = 4\nvalue = -0.5", fillcolor="#f8e0ce"] ;
29 -> 31 ;
32 [label="mse = 0.0\nsamples = 21\nvalue = 1.0", fillcolor="#e58139"] ;
28 -> 32 ;
33 [label="UD.o.a <= -0.0\nmse = 0.98\nsamples = 14\nvalue = -0.14", fillcolor="#f4c9aa"] ;
27 -> 33 ;
34 [label="mse = 0.0\nsamples = 4\nvalue = 1.0", fillcolor="#e58139"] ;
33 -> 34 ;
35 [label="UD.Shift.r.o <= 0.1\nmse = 0.64\nsamples = 10\nvalue = -0.6", fillcolor="#fae6d7"] ;
33 -> 35 ;
36 [label="UD.n.l <= 0.01\nmse = 0.4\nsamples = 9\nvalue = -0.78", fillcolor="#fcf1e9"] ;
35 -> 36 ;
37 [label="mse = 0.0\nsamples = 1\nvalue = 1.0", fillcolor="#e58139"] ;
36 -> 37 ;
38 [label="mse = 0.0\nsamples = 8\nvalue = -1.0", fillcolor="#ffffff"] ;
36 -> 38 ;
39 [label="mse = 0.0\nsamples = 1\nvalue = 1.0", fillcolor="#e58139"] ;
35 -> 39 ;
40 [label="UD.i.e <= 0.01\nmse = 0.44\nsamples = 8\nvalue = -0.75", fillcolor="#fcefe6"] ;
26 -> 40 ;
41 [label="mse = 0.0\nsamples = 1\nvalue = 1.0", fillcolor="#e58139"] ;
40 -> 41 ;
42 [label="mse = 0.0\nsamples = 7\nvalue = -1.0", fillcolor="#ffffff"] ;
40 -> 42 ;
43 [label="DD.l.Return <= 0.25\nmse = 0.4\nsamples = 27\nvalue = -0.78", fillcolor="#fcf1e9"] ;
25 -> 43 ;
44 [label="mse = 0.0\nsamples = 1\nvalue = 1.0", fillcolor="#e58139"] ;
43 -> 44 ;
45 [label="DD.t.i <= 0.33\nmse = 0.28\nsamples = 26\nvalue = -0.85", fillcolor="#fdf5f0"] ;
43 -> 45 ;
46 [label="DD.five.Shift.r <= 0.26\nmse = 0.15\nsamples = 25\nvalue = -0.92", fillcolor="#fefaf7"] ;
45 -> 46 ;
47 [label="mse = 0.0\nsamples = 1\nvalue = 1.0", fillcolor="#e58139"] ;
46 -> 47 ;
48 [label="mse = 0.0\nsamples = 24\nvalue = -1.0", fillcolor="#ffffff"] ;
46 -> 48 ;
49 [label="mse = 0.0\nsamples = 1\nvalue = 1.0", fillcolor="#e58139"] ;
45 -> 49 ;
50 [label="DD.Shift.r.o <= 0.26\nmse = 0.16\nsamples = 190\nvalue = -0.92", fillcolor="#fefaf7"] ;
24 -> 50 ;
51 [label="DD.t.i <= 0.15\nmse = 0.47\nsamples = 51\nvalue = -0.73", fillcolor="#fbeee4"] ;
50 -> 51 ;
52 [label="mse = 0.0\nsamples = 32\nvalue = -1.0", fillcolor="#ffffff"] ;
51 -> 52 ;
53 [label="UD.t.i <= 0.2\nmse = 0.93\nsamples = 19\nvalue = -0.26", fillcolor="#f5d1b6"] ;
51 -> 53 ;
54 [label="UD.Shift.r.o <= 0.14\nmse = 0.99\nsamples = 13\nvalue = 0.08", fillcolor="#f1bb94"] ;
53 -> 54 ;
55 [label="H.e <= 0.09\nmse = 0.75\nsamples = 8\nvalue = -0.5", fillcolor="#f8e0ce"] ;
54 -> 55 ;
56 [label="mse = 0.0\nsamples = 5\nvalue = -1.0", fillcolor="#ffffff"] ;
55 -> 56 ;
57 [label="mse = 0.89\nsamples = 3\nvalue = 0.33", fillcolor="#eeab7b"] ;
55 -> 57 ;
58 [label="mse = 0.0\nsamples = 5\nvalue = 1.0", fillcolor="#e58139"] ;
54 -> 58 ;
59 [label="mse = 0.0\nsamples = 6\nvalue = -1.0", fillcolor="#ffffff"] ;
53 -> 59 ;
60 [label="DD.i.e <= 0.07\nmse = 0.03\nsamples = 139\nvalue = -0.99", fillcolor="#fffefe"] ;
50 -> 60 ;
61 [label="UD.t.i <= 0.09\nmse = 0.56\nsamples = 6\nvalue = -0.67", fillcolor="#fbeade"] ;
60 -> 61 ;
62 [label="mse = 0.0\nsamples = 5\nvalue = -1.0", fillcolor="#ffffff"] ;
61 -> 62 ;
63 [label="mse = 0.0\nsamples = 1\nvalue = 1.0", fillcolor="#e58139"] ;
61 -> 63 ;
64 [label="mse = 0.0\nsamples = 133\nvalue = -1.0", fillcolor="#ffffff"] ;
60 -> 64 ;
}