digraph Tree {
node [shape=box, style="filled, rounded", color="black", fontname=helvetica] ;
edge [fontname=helvetica] ;
0 [label="UD.a.n <= 0.03\nmse = 0.98\nsamples = 450\nvalue = -0.13", fillcolor="#f4c8a9"] ;
1 [label="UD.period.t <= 0.08\nmse = 0.68\nsamples = 234\nvalue = 0.56", fillcolor="#eb9c64"] ;
0 -> 1 [labeldistance=2.5, labelangle=45, headlabel="True"] ;
2 [label="DD.a.n <= 0.14\nmse = 0.15\nsamples = 149\nvalue = 0.92", fillcolor="#e68641"] ;
1 -> 2 ;
3 [label="UD.i.e <= 0.08\nmse = 0.06\nsamples = 143\nvalue = 0.97", fillcolor="#e5833c"] ;
2 -> 3 ;
4 [label="UD.a.n <= 0.01\nmse = 0.03\nsamples = 140\nvalue = 0.99", fillcolor="#e5823a"] ;
3 -> 4 ;
5 [label="mse = 0.0\nsamples = 115\nvalue = 1.0", fillcolor="#e58139"] ;
4 -> 5 ;
6 [label="UD.t.i <= 0.01\nmse = 0.15\nsamples = 25\nvalue = 0.92", fillcolor="#e68641"] ;
4 -> 6 ;
7 [label="mse = 0.0\nsamples = 1\nvalue = -1.0", fillcolor="#ffffff"] ;
6 -> 7 ;
8 [label="mse = 0.0\nsamples = 24\nvalue = 1.0", fillcolor="#e58139"] ;
6 -> 8 ;
9 [label="mse = 0.89\nsamples = 3\nvalue = 0.33", fillcolor="#eeab7b"] ;
3 -> 9 ;
10 [label="H.e <= 0.07\nmse = 0.89\nsamples = 6\nvalue = -0.33", fillcolor="#f6d5bd"] ;
2 -> 10 ;
11 [label="mse = 0.0\nsamples = 2\nvalue = 1.0", fillcolor="#e58139"] ;
10 -> 11 ;
12 [label="mse = 0.0\nsamples = 4\nvalue = -1.0", fillcolor="#ffffff"] ;
10 -> 12 ;
13 [label="DD.o.a <= 0.13\nmse = 1.0\nsamples = 85\nvalue = -0.06", fillcolor="#f3c4a2"] ;
1 -> 13 ;
14 [label="UD.a.n <= 0.01\nmse = 0.85\nsamples = 56\nvalue = 0.39", fillcolor="#eda775"] ;
13 -> 14 ;
15 [label="DD.i.e <= 0.09\nmse = 0.6\nsamples = 38\nvalue = 0.63", fillcolor="#ea985d"] ;
14 -> 15 ;
16 [label="mse = 0.75\nsamples = 4\nvalue = -0.5", fillcolor="#f8e0ce"] ;
15 -> 16 ;
17 [label="H.Return <= 0.09\nmse = 0.42\nsamples = 34\nvalue = 0.76", fillcolor="#e89050"] ;
15 -> 17 ;
18 [label="mse = 0.0\nsamples = 25\nvalue = 1.0", fillcolor="#e58139"] ;
17 -> 18 ;
19 [label="DD.l.Return <= 0.38\nmse = 0.99\nsamples = 9\nvalue = 0.11", fillcolor="#f1b991"] ;
17 -> 19 ;
20 [label="DD.Shift.r.o <= 0.12\nmse = 0.89\nsamples = 6\nvalue = -0.33", fillcolor="#f6d5bd"] ;
19 -> 20 ;
21 [label="mse = 0.0\nsamples = 3\nvalue = -1.0", fillcolor="#ffffff"] ;
20 -> 21 ;
22 [label="mse = 0.89\nsamples = 3\nvalue = 0.33", fillcolor="#eeab7b"] ;
20 -> 22 ;
23 [label="mse = 0.0\nsamples = 3\nvalue = 1.0", fillcolor="#e58139"] ;
19 -> 23 ;
24 [label="H.a <= 0.1\nmse = 0.99\nsamples = 18\nvalue = -0.11", fillcolor="#f3c7a7"] ;
14 -> 24 ;
25 [label="UD.period.t <= 0.09\nmse = 0.4\nsamples = 9\nvalue = -0.78", fillcolor="#fcf1e9"] ;
24 -> 25 ;
26 [label="mse = 0.0\nsamples = 1\nvalue = 1.0", fillcolor="#e58139"] ;
25 -> 26 ;
27 [label="mse = 0.0\nsamples = 8\nvalue = -1.0", fillcolor="#ffffff"] ;
25 -> 27 ;
28 [label="H.i <= 0.08\nmse = 0.69\nsamples = 9\nvalue = 0.56", fillcolor="#eb9d65"] ;
24 -> 28 ;
29 [label="mse = 0.0\nsamples = 7\nvalue = 1.0", fillcolor="#e58139"] ;
28 -> 29 ;
30 [label="mse = 0.0\nsamples = 2\nvalue = -1.0", fillcolor="#ffffff"] ;
28 -> 30 ;
31 [label="DD.l.Return <= 0.2\nmse = 0.13\nsamples = 29\nvalue = -0.93", fillcolor="#fefbf8"] ;
13 -> 31 ;
32 [label="mse = 1.0\nsamples = 2\nvalue = 0.0", fillcolor="#f2c09c"] ;
31 -> 32 ;
33 [label="mse = 0.0\nsamples = 27\nvalue = -1.0", fillcolor="#ffffff"] ;
31 -> 33 ;
34 [label="UD.n.l <= 0.04\nmse = 0.21\nsamples = 216\nvalue = -0.89", fillcolor="#fef8f4"] ;
0 -> 34 [labeldistance=2.5, labelangle=-45, headlabel="False"] ;
35 [label="H.Shift.r <= 0.08\nmse = 0.97\nsamples = 17\nvalue = -0.18", fillcolor="#f4cbad"] ;
34 -> 35 ;
36 [label="mse = 0.0\nsamples = 8\nvalue = -1.0", fillcolor="#ffffff"] ;
35 -> 36 ;
37 [label="DD.Shift.r.o <= 0.2\nmse = 0.69\nsamples = 9\nvalue = 0.56", fillcolor="#eb9d65"] ;
35 -> 37 ;
38 [label="mse = 0.0\nsamples = 7\nvalue = 1.0", fillcolor="#e58139"] ;
37 -> 38 ;
39 [label="mse = 0.0\nsamples = 2\nvalue = -1.0", fillcolor="#ffffff"] ;
37 -> 39 ;
40 [label="DD.o.a <= 0.08\nmse = 0.1\nsamples = 199\nvalue = -0.95", fillcolor="#fefcfa"] ;
34 -> 40 ;
41 [label="UD.t.i <= 0.06\nmse = 0.94\nsamples = 8\nvalue = -0.25", fillcolor="#f5d0b5"] ;
40 -> 41 ;
42 [label="mse = 0.0\nsamples = 3\nvalue = 1.0", fillcolor="#e58139"] ;
41 -> 42 ;
43 [label="mse = 0.0\nsamples = 5\nvalue = -1.0", fillcolor="#ffffff"] ;
41 -> 43 ;
44 [label="UD.a.n <= 0.03\nmse = 0.04\nsamples = 191\nvalue = -0.98", fillcolor="#fffefd"] ;
40 -> 44 ;
45 [label="mse = 0.89\nsamples = 3\nvalue = -0.33", fillcolor="#f6d5bd"] ;
44 -> 45 ;
46 [label="DD.i.e <= 0.09\nmse = 0.02\nsamples = 188\nvalue = -0.99", fillcolor="#fffefe"] ;
44 -> 46 ;
47 [label="DD.i.e <= 0.09\nmse = 0.2\nsamples = 19\nvalue = -0.89", fillcolor="#fef8f5"] ;
46 -> 47 ;
48 [label="mse = 0.0\nsamples = 18\nvalue = -1.0", fillcolor="#ffffff"] ;
47 -> 48 ;
49 [label="mse = 0.0\nsamples = 1\nvalue = 1.0", fillcolor="#e58139"] ;
47 -> 49 ;
50 [label="mse = 0.0\nsamples = 169\nvalue = -1.0", fillcolor="#ffffff"] ;
46 -> 50 ;
}