digraph Tree {
node [shape=box, style="filled, rounded", color="black", fontname=helvetica] ;
edge [fontname=helvetica] ;
0 [label="DD.l.Return <= 0.49\nmse = 0.99\nsamples = 450\nvalue = -0.08", fillcolor="#f3c5a3"] ;
1 [label="H.l <= 0.09\nmse = 0.99\nsamples = 366\nvalue = 0.12", fillcolor="#f0b890"] ;
0 -> 1 [labeldistance=2.5, labelangle=45, headlabel="True"] ;
2 [label="DD.e.five <= 0.39\nmse = 0.8\nsamples = 221\nvalue = 0.45", fillcolor="#eca470"] ;
1 -> 2 ;
3 [label="DD.a.n <= 0.2\nmse = 0.4\nsamples = 152\nvalue = 0.78", fillcolor="#e88f4f"] ;
2 -> 3 ;
4 [label="H.i <= 0.08\nmse = 0.28\nsamples = 144\nvalue = 0.85", fillcolor="#e78b48"] ;
3 -> 4 ;
5 [label="UD.e.five <= 0.23\nmse = 0.14\nsamples = 135\nvalue = 0.93", fillcolor="#e68640"] ;
4 -> 5 ;
6 [label="H.period <= 0.1\nmse = 0.03\nsamples = 114\nvalue = 0.98", fillcolor="#e5823b"] ;
5 -> 6 ;
7 [label="mse = 0.0\nsamples = 113\nvalue = 1.0", fillcolor="#e58139"] ;
6 -> 7 ;
8 [label="mse = 0.0\nsamples = 1\nvalue = -1.0", fillcolor="#ffffff"] ;
6 -> 8 ;
9 [label="H.t <= 0.05\nmse = 0.62\nsamples = 21\nvalue = 0.62", fillcolor="#ea995f"] ;
5 -> 9 ;
10 [label="mse = 0.0\nsamples = 3\nvalue = -1.0", fillcolor="#ffffff"] ;
9 -> 10 ;
11 [label="DD.five.Shift.r <= 0.66\nmse = 0.21\nsamples = 18\nvalue = 0.89", fillcolor="#e68844"] ;
9 -> 11 ;
12 [label="mse = 0.0\nsamples = 16\nvalue = 1.0", fillcolor="#e58139"] ;
11 -> 12 ;
13 [label="mse = 1.0\nsamples = 2\nvalue = 0.0", fillcolor="#f2c09c"] ;
11 -> 13 ;
14 [label="H.period <= 0.07\nmse = 0.89\nsamples = 9\nvalue = -0.33", fillcolor="#f6d5bd"] ;
4 -> 14 ;
15 [label="mse = 0.0\nsamples = 3\nvalue = 1.0", fillcolor="#e58139"] ;
14 -> 15 ;
16 [label="mse = 0.0\nsamples = 6\nvalue = -1.0", fillcolor="#ffffff"] ;
14 -> 16 ;
17 [label="H.i <= 0.06\nmse = 0.75\nsamples = 8\nvalue = -0.5", fillcolor="#f8e0ce"] ;
3 -> 17 ;
18 [label="mse = 0.89\nsamples = 3\nvalue = 0.33", fillcolor="#eeab7b"] ;
17 -> 18 ;
19 [label="mse = 0.0\nsamples = 5\nvalue = -1.0", fillcolor="#ffffff"] ;
17 -> 19 ;
20 [label="H.period <= 0.06\nmse = 0.92\nsamples = 69\nvalue = -0.28", fillcolor="#f6d1b7"] ;
2 -> 20 ;
21 [label="DD.l.Return <= 0.23\nmse = 0.28\nsamples = 26\nvalue = 0.85", fillcolor="#e78b48"] ;
20 -> 21 ;
22 [label="mse = 0.0\nsamples = 2\nvalue = -1.0", fillcolor="#ffffff"] ;
21 -> 22 ;
23 [label="mse = 0.0\nsamples = 24\nvalue = 1.0", fillcolor="#e58139"] ;
21 -> 23 ;
24 [label="UD.o.a <= 0.01\nmse = 0.09\nsamples = 43\nvalue = -0.95", fillcolor="#fefcfa"] ;
20 -> 24 ;
25 [label="mse = 1.0\nsamples = 2\nvalue = 0.0", fillcolor="#f2c09c"] ;
24 -> 25 ;
26 [label="mse = 0.0\nsamples = 41\nvalue = -1.0", fillcolor="#ffffff"] ;
24 -> 26 ;
27 [label="DD.Shift.r.o <= 0.2\nmse = 0.86\nsamples = 145\nvalue = -0.38", fillcolor="#f7d8c2"] ;
1 -> 27 ;
28 [label="UD.Shift.r.o <= 0.06\nmse = 0.89\nsamples = 63\nvalue = 0.33", fillcolor="#eeab7b"] ;
27 -> 28 ;
29 [label="H.period <= 0.08\nmse = 0.44\nsamples = 40\nvalue = 0.75", fillcolor="#e89152"] ;
28 -> 29 ;
30 [label="mse = 0.0\nsamples = 34\nvalue = 1.0", fillcolor="#e58139"] ;
29 -> 30 ;
31 [label="DD.e.five <= 0.21\nmse = 0.56\nsamples = 6\nvalue = -0.67", fillcolor="#fbeade"] ;
29 -> 31 ;
32 [label="mse = 0.0\nsamples = 1\nvalue = 1.0", fillcolor="#e58139"] ;
31 -> 32 ;
33 [label="mse = 0.0\nsamples = 5\nvalue = -1.0", fillcolor="#ffffff"] ;
31 -> 33 ;
34 [label="H.o <= 0.07\nmse = 0.85\nsamples = 23\nvalue = -0.39", fillcolor="#f7d9c3"] ;
28 -> 34 ;
35 [label="mse = 0.0\nsamples = 5\nvalue = 1.0", fillcolor="#e58139"] ;
34 -> 35 ;
36 [label="UD.period.t <= 0.37\nmse = 0.4\nsamples = 18\nvalue = -0.78", fillcolor="#fcf1e9"] ;
34 -> 36 ;
37 [label="DD.e.five <= 0.2\nmse = 0.22\nsamples = 17\nvalue = -0.88", fillcolor="#fdf8f3"] ;
36 -> 37 ;
38 [label="mse = 0.0\nsamples = 1\nvalue = 1.0", fillcolor="#e58139"] ;
37 -> 38 ;
39 [label="mse = 0.0\nsamples = 16\nvalue = -1.0", fillcolor="#ffffff"] ;
37 -> 39 ;
40 [label="mse = 0.0\nsamples = 1\nvalue = 1.0", fillcolor="#e58139"] ;
36 -> 40 ;
41 [label="UD.Shift.r.o <= 0.09\nmse = 0.14\nsamples = 82\nvalue = -0.93", fillcolor="#fefaf8"] ;
27 -> 41 ;
42 [label="H.o <= 0.08\nmse = 0.96\nsamples = 5\nvalue = 0.2", fillcolor="#efb388"] ;
41 -> 42 ;
43 [label="mse = 0.0\nsamples = 3\nvalue = 1.0", fillcolor="#e58139"] ;
42 -> 43 ;
44 [label="mse = 0.0\nsamples = 2\nvalue = -1.0", fillcolor="#ffffff"] ;
42 -> 44 ;
45 [label="mse = 0.0\nsamples = 77\nvalue = -1.0", fillcolor="#ffffff"] ;
41 -> 45 ;
46 [label="DD.a.n <= 0.08\nmse = 0.14\nsamples = 84\nvalue = -0.93", fillcolor="#fefaf8"] ;
0 -> 46 [labeldistance=2.5, labelangle=-45, headlabel="False"] ;
47 [label="mse = 0.0\nsamples = 2\nvalue = 1.0", fillcolor="#e58139"] ;
46 -> 47 ;
48 [label="DD.Shift.r.o <= 0.14\nmse = 0.05\nsamples = 82\nvalue = -0.98", fillcolor="#fffdfd"] ;
46 -> 48 ;
49 [label="mse = 1.0\nsamples = 2\nvalue = 0.0", fillcolor="#f2c09c"] ;
48 -> 49 ;
50 [label="mse = 0.0\nsamples = 80\nvalue = -1.0", fillcolor="#ffffff"] ;
48 -> 50 ;
}