digraph Tree {
node [shape=box, style="filled, rounded", color="black", fontname=helvetica] ;
edge [fontname=helvetica] ;
0 [label="UD.Shift.r.o <= 0.22\nmse = 0.99\nsamples = 450\nvalue = -0.1", fillcolor="#f3c6a6"] ;
1 [label="UD.Shift.r.o <= 0.18\nmse = 0.14\nsamples = 163\nvalue = -0.93", fillcolor="#fefaf8"] ;
0 -> 1 [labeldistance=2.5, labelangle=45, headlabel="True"] ;
2 [label="mse = 0.0\nsamples = 128\nvalue = -1.0", fillcolor="#ffffff"] ;
1 -> 2 ;
3 [label="DD.five.Shift.r <= 0.43\nmse = 0.57\nsamples = 35\nvalue = -0.66", fillcolor="#fbe9dd"] ;
1 -> 3 ;
4 [label="H.o <= 0.08\nmse = 0.96\nsamples = 10\nvalue = 0.2", fillcolor="#efb388"] ;
3 -> 4 ;
5 [label="mse = 0.0\nsamples = 3\nvalue = -1.0", fillcolor="#ffffff"] ;
4 -> 5 ;
6 [label="H.i <= 0.07\nmse = 0.49\nsamples = 7\nvalue = 0.71", fillcolor="#e99355"] ;
4 -> 6 ;
7 [label="mse = 0.0\nsamples = 6\nvalue = 1.0", fillcolor="#e58139"] ;
6 -> 7 ;
8 [label="mse = 0.0\nsamples = 1\nvalue = -1.0", fillcolor="#ffffff"] ;
6 -> 8 ;
9 [label="mse = 0.0\nsamples = 25\nvalue = -1.0", fillcolor="#ffffff"] ;
3 -> 9 ;
10 [label="UD.t.i <= 0.06\nmse = 0.87\nsamples = 287\nvalue = 0.37", fillcolor="#eda978"] ;
0 -> 10 [labeldistance=2.5, labelangle=-45, headlabel="False"] ;
11 [label="UD.o.a <= 0.07\nmse = 0.43\nsamples = 215\nvalue = 0.76", fillcolor="#e89051"] ;
10 -> 11 ;
12 [label="H.a <= 0.08\nmse = 0.17\nsamples = 180\nvalue = 0.91", fillcolor="#e68742"] ;
11 -> 12 ;
13 [label="DD.l.Return <= 0.43\nmse = 0.99\nsamples = 9\nvalue = -0.11", fillcolor="#f3c7a7"] ;
12 -> 13 ;
14 [label="UD.Shift.r.o <= 0.24\nmse = 0.89\nsamples = 6\nvalue = 0.33", fillcolor="#eeab7b"] ;
13 -> 14 ;
15 [label="mse = 0.0\nsamples = 2\nvalue = -1.0", fillcolor="#ffffff"] ;
14 -> 15 ;
16 [label="mse = 0.0\nsamples = 4\nvalue = 1.0", fillcolor="#e58139"] ;
14 -> 16 ;
17 [label="mse = 0.0\nsamples = 3\nvalue = -1.0", fillcolor="#ffffff"] ;
13 -> 17 ;
18 [label="UD.a.n <= 0.1\nmse = 0.07\nsamples = 171\nvalue = 0.96", fillcolor="#e5833c"] ;
12 -> 18 ;
19 [label="UD.e.five <= 0.6\nmse = 0.02\nsamples = 168\nvalue = 0.99", fillcolor="#e5823a"] ;
18 -> 19 ;
20 [label="mse = 0.0\nsamples = 162\nvalue = 1.0", fillcolor="#e58139"] ;
19 -> 20 ;
21 [label="UD.o.a <= 0.05\nmse = 0.56\nsamples = 6\nvalue = 0.67", fillcolor="#e9965a"] ;
19 -> 21 ;
22 [label="mse = 0.0\nsamples = 4\nvalue = 1.0", fillcolor="#e58139"] ;
21 -> 22 ;
23 [label="mse = 1.0\nsamples = 2\nvalue = 0.0", fillcolor="#f2c09c"] ;
21 -> 23 ;
24 [label="mse = 0.89\nsamples = 3\nvalue = -0.33", fillcolor="#f6d5bd"] ;
18 -> 24 ;
25 [label="UD.l.Return <= 0.23\nmse = 1.0\nsamples = 35\nvalue = -0.03", fillcolor="#f2c29f"] ;
11 -> 25 ;
26 [label="DD.Shift.r.o <= 0.48\nmse = 0.56\nsamples = 12\nvalue = -0.67", fillcolor="#fbeade"] ;
25 -> 26 ;
27 [label="H.t <= 0.07\nmse = 0.33\nsamples = 11\nvalue = -0.82", fillcolor="#fdf4ed"] ;
26 -> 27 ;
28 [label="mse = 1.0\nsamples = 2\nvalue = 0.0", fillcolor="#f2c09c"] ;
27 -> 28 ;
29 [label="mse = 0.0\nsamples = 9\nvalue = -1.0", fillcolor="#ffffff"] ;
27 -> 29 ;
30 [label="mse = 0.0\nsamples = 1\nvalue = 1.0", fillcolor="#e58139"] ;
26 -> 30 ;
31 [label="H.period <= 0.06\nmse = 0.91\nsamples = 23\nvalue = 0.3", fillcolor="#eead7e"] ;
25 -> 31 ;
32 [label="mse = 0.0\nsamples = 4\nvalue = -1.0", fillcolor="#ffffff"] ;
31 -> 32 ;
33 [label="H.n <= 0.08\nmse = 0.66\nsamples = 19\nvalue = 0.58", fillcolor="#ea9c63"] ;
31 -> 33 ;
34 [label="mse = 0.0\nsamples = 15\nvalue = 1.0", fillcolor="#e58139"] ;
33 -> 34 ;
35 [label="mse = 0.0\nsamples = 4\nvalue = -1.0", fillcolor="#ffffff"] ;
33 -> 35 ;
36 [label="DD.o.a <= 0.12\nmse = 0.35\nsamples = 72\nvalue = -0.81", fillcolor="#fcf3ec"] ;
10 -> 36 ;
37 [label="H.t <= 0.07\nmse = 0.92\nsamples = 14\nvalue = -0.29", fillcolor="#f6d2b8"] ;
36 -> 37 ;
38 [label="mse = 0.0\nsamples = 7\nvalue = -1.0", fillcolor="#ffffff"] ;
37 -> 38 ;
39 [label="DD.a.n <= 0.2\nmse = 0.82\nsamples = 7\nvalue = 0.43", fillcolor="#eca572"] ;
37 -> 39 ;
40 [label="mse = 0.0\nsamples = 5\nvalue = 1.0", fillcolor="#e58139"] ;
39 -> 40 ;
41 [label="mse = 0.0\nsamples = 2\nvalue = -1.0", fillcolor="#ffffff"] ;
39 -> 41 ;
42 [label="DD.n.l <= 0.21\nmse = 0.13\nsamples = 58\nvalue = -0.93", fillcolor="#fefbf8"] ;
36 -> 42 ;
43 [label="mse = 0.89\nsamples = 3\nvalue = 0.33", fillcolor="#eeab7b"] ;
42 -> 43 ;
44 [label="mse = 0.0\nsamples = 55\nvalue = -1.0", fillcolor="#ffffff"] ;
42 -> 44 ;
}