digraph Tree {
node [shape=box, style="filled, rounded", color="black", fontname=helvetica] ;
edge [fontname=helvetica] ;
0 [label="UD.Shift.r.o <= 0.08\nmse = 0.99\nsamples = 450\nvalue = -0.08", fillcolor="#f3c5a3"] ;
1 [label="DD.i.e <= 0.11\nmse = 0.39\nsamples = 192\nvalue = 0.78", fillcolor="#e88f4f"] ;
0 -> 1 [labeldistance=2.5, labelangle=45, headlabel="True"] ;
2 [label="UD.i.e <= 0.04\nmse = 0.56\nsamples = 12\nvalue = -0.67", fillcolor="#fbeade"] ;
1 -> 2 ;
3 [label="mse = 0.0\nsamples = 9\nvalue = -1.0", fillcolor="#ffffff"] ;
2 -> 3 ;
4 [label="mse = 0.89\nsamples = 3\nvalue = 0.33", fillcolor="#eeab7b"] ;
2 -> 4 ;
5 [label="UD.t.i <= 0.02\nmse = 0.23\nsamples = 180\nvalue = 0.88", fillcolor="#e78945"] ;
1 -> 5 ;
6 [label="UD.five.Shift.r <= 0.35\nmse = 0.82\nsamples = 7\nvalue = -0.43", fillcolor="#f8dbc6"] ;
5 -> 6 ;
7 [label="mse = 0.89\nsamples = 3\nvalue = 0.33", fillcolor="#eeab7b"] ;
6 -> 7 ;
8 [label="mse = 0.0\nsamples = 4\nvalue = -1.0", fillcolor="#ffffff"] ;
6 -> 8 ;
9 [label="DD.e.five <= 0.32\nmse = 0.13\nsamples = 173\nvalue = 0.93", fillcolor="#e68540"] ;
5 -> 9 ;
10 [label="mse = 0.0\nsamples = 142\nvalue = 1.0", fillcolor="#e58139"] ;
9 -> 10 ;
11 [label="UD.five.Shift.r <= 0.31\nmse = 0.62\nsamples = 31\nvalue = 0.61", fillcolor="#ea995f"] ;
9 -> 11 ;
12 [label="mse = 0.75\nsamples = 4\nvalue = -0.5", fillcolor="#f8e0ce"] ;
11 -> 12 ;
13 [label="H.i <= 0.09\nmse = 0.4\nsamples = 27\nvalue = 0.78", fillcolor="#e88f4f"] ;
11 -> 13 ;
14 [label="mse = 0.0\nsamples = 24\nvalue = 1.0", fillcolor="#e58139"] ;
13 -> 14 ;
15 [label="mse = 0.0\nsamples = 3\nvalue = -1.0", fillcolor="#ffffff"] ;
13 -> 15 ;
16 [label="H.Shift.r <= 0.13\nmse = 0.49\nsamples = 258\nvalue = -0.71", fillcolor="#fbede3"] ;
0 -> 16 [labeldistance=2.5, labelangle=-45, headlabel="False"] ;
17 [label="H.Shift.r <= 0.13\nmse = 0.04\nsamples = 207\nvalue = -0.98", fillcolor="#fffefd"] ;
16 -> 17 ;
18 [label="DD.Shift.r.o <= 0.42\nmse = 0.02\nsamples = 203\nvalue = -0.99", fillcolor="#fffefe"] ;
17 -> 18 ;
19 [label="mse = 0.0\nsamples = 136\nvalue = -1.0", fillcolor="#ffffff"] ;
18 -> 19 ;
20 [label="UD.five.Shift.r <= 0.47\nmse = 0.06\nsamples = 67\nvalue = -0.97", fillcolor="#fffdfc"] ;
18 -> 20 ;
21 [label="DD.five.Shift.r <= 0.54\nmse = 0.27\nsamples = 14\nvalue = -0.86", fillcolor="#fdf6f1"] ;
20 -> 21 ;
22 [label="mse = 0.0\nsamples = 13\nvalue = -1.0", fillcolor="#ffffff"] ;
21 -> 22 ;
23 [label="mse = 0.0\nsamples = 1\nvalue = 1.0", fillcolor="#e58139"] ;
21 -> 23 ;
24 [label="mse = 0.0\nsamples = 53\nvalue = -1.0", fillcolor="#ffffff"] ;
20 -> 24 ;
25 [label="mse = 0.75\nsamples = 4\nvalue = -0.5", fillcolor="#f8e0ce"] ;
17 -> 25 ;
26 [label="H.period <= 0.09\nmse = 0.86\nsamples = 51\nvalue = 0.37", fillcolor="#eda977"] ;
16 -> 26 ;
27 [label="DD.period.t <= 0.41\nmse = 0.51\nsamples = 40\nvalue = 0.7", fillcolor="#e99457"] ;
26 -> 27 ;
28 [label="DD.a.n <= 0.11\nmse = 0.11\nsamples = 34\nvalue = 0.94", fillcolor="#e6853f"] ;
27 -> 28 ;
29 [label="mse = 0.0\nsamples = 1\nvalue = -1.0", fillcolor="#ffffff"] ;
28 -> 29 ;
30 [label="mse = 0.0\nsamples = 33\nvalue = 1.0", fillcolor="#e58139"] ;
28 -> 30 ;
31 [label="UD.l.Return <= 0.28\nmse = 0.56\nsamples = 6\nvalue = -0.67", fillcolor="#fbeade"] ;
27 -> 31 ;
32 [label="mse = 0.0\nsamples = 1\nvalue = 1.0", fillcolor="#e58139"] ;
31 -> 32 ;
33 [label="mse = 0.0\nsamples = 5\nvalue = -1.0", fillcolor="#ffffff"] ;
31 -> 33 ;
34 [label="H.e <= 0.08\nmse = 0.33\nsamples = 11\nvalue = -0.82", fillcolor="#fdf4ed"] ;
26 -> 34 ;
35 [label="mse = 0.0\nsamples = 1\nvalue = 1.0", fillcolor="#e58139"] ;
34 -> 35 ;
36 [label="mse = 0.0\nsamples = 10\nvalue = -1.0", fillcolor="#ffffff"] ;
34 -> 36 ;
}