digraph Tree {
node [shape=box, style="filled, rounded", color="black", fontname=helvetica] ;
edge [fontname=helvetica] ;
0 [label="UD.e.five <= 0.29\nmse = 0.98\nsamples = 450\nvalue = -0.16", fillcolor="#f4caab"] ;
1 [label="UD.five.Shift.r <= 0.37\nmse = 0.75\nsamples = 219\nvalue = 0.5", fillcolor="#eca16b"] ;
0 -> 1 [labeldistance=2.5, labelangle=45, headlabel="True"] ;
2 [label="H.Shift.r <= 0.09\nmse = 0.47\nsamples = 189\nvalue = 0.72", fillcolor="#e99254"] ;
1 -> 2 ;
3 [label="UD.n.l <= 0.07\nmse = 0.37\nsamples = 182\nvalue = 0.79", fillcolor="#e88e4e"] ;
2 -> 3 ;
4 [label="H.a <= 0.12\nmse = 0.02\nsamples = 161\nvalue = 0.99", fillcolor="#e5823a"] ;
3 -> 4 ;
5 [label="mse = 0.0\nsamples = 160\nvalue = 1.0", fillcolor="#e58139"] ;
4 -> 5 ;
6 [label="mse = 0.0\nsamples = 1\nvalue = -1.0", fillcolor="#ffffff"] ;
4 -> 6 ;
7 [label="H.o <= 0.1\nmse = 0.49\nsamples = 21\nvalue = -0.71", fillcolor="#fbede3"] ;
3 -> 7 ;
8 [label="H.n <= 0.1\nmse = 0.2\nsamples = 19\nvalue = -0.89", fillcolor="#fef8f5"] ;
7 -> 8 ;
9 [label="mse = 0.0\nsamples = 18\nvalue = -1.0", fillcolor="#ffffff"] ;
8 -> 9 ;
10 [label="mse = 0.0\nsamples = 1\nvalue = 1.0", fillcolor="#e58139"] ;
8 -> 10 ;
11 [label="mse = 0.0\nsamples = 2\nvalue = 1.0", fillcolor="#e58139"] ;
7 -> 11 ;
12 [label="mse = 0.0\nsamples = 7\nvalue = -1.0", fillcolor="#ffffff"] ;
2 -> 12 ;
13 [label="DD.e.five <= 0.35\nmse = 0.13\nsamples = 30\nvalue = -0.93", fillcolor="#fefbf8"] ;
1 -> 13 ;
14 [label="mse = 0.0\nsamples = 25\nvalue = -1.0", fillcolor="#ffffff"] ;
13 -> 14 ;
15 [label="H.i <= 0.06\nmse = 0.64\nsamples = 5\nvalue = -0.6", fillcolor="#fae6d7"] ;
13 -> 15 ;
16 [label="mse = 1.0\nsamples = 2\nvalue = 0.0", fillcolor="#f2c09c"] ;
15 -> 16 ;
17 [label="mse = 0.0\nsamples = 3\nvalue = -1.0", fillcolor="#ffffff"] ;
15 -> 17 ;
18 [label="DD.n.l <= 0.12\nmse = 0.4\nsamples = 231\nvalue = -0.77", fillcolor="#fcf1e9"] ;
0 -> 18 [labeldistance=2.5, labelangle=-45, headlabel="False"] ;
19 [label="UD.l.Return <= 0.24\nmse = 0.78\nsamples = 19\nvalue = 0.47", fillcolor="#eca26d"] ;
18 -> 19 ;
20 [label="DD.t.i <= 0.13\nmse = 0.27\nsamples = 14\nvalue = 0.86", fillcolor="#e78a47"] ;
19 -> 20 ;
21 [label="mse = 0.0\nsamples = 1\nvalue = -1.0", fillcolor="#ffffff"] ;
20 -> 21 ;
22 [label="mse = 0.0\nsamples = 13\nvalue = 1.0", fillcolor="#e58139"] ;
20 -> 22 ;
23 [label="DD.e.five <= 0.42\nmse = 0.64\nsamples = 5\nvalue = -0.6", fillcolor="#fae6d7"] ;
19 -> 23 ;
24 [label="mse = 0.0\nsamples = 1\nvalue = 1.0", fillcolor="#e58139"] ;
23 -> 24 ;
25 [label="mse = 0.0\nsamples = 4\nvalue = -1.0", fillcolor="#ffffff"] ;
23 -> 25 ;
26 [label="UD.a.n <= 0.92\nmse = 0.21\nsamples = 212\nvalue = -0.89", fillcolor="#fef8f4"] ;
18 -> 26 ;
27 [label="H.t <= 0.08\nmse = 0.2\nsamples = 211\nvalue = -0.9", fillcolor="#fef8f5"] ;
26 -> 27 ;
28 [label="UD.n.l <= 0.02\nmse = 0.32\nsamples = 124\nvalue = -0.82", fillcolor="#fdf4ed"] ;
27 -> 28 ;
29 [label="mse = 0.0\nsamples = 4\nvalue = 1.0", fillcolor="#e58139"] ;
28 -> 29 ;
30 [label="H.a <= 0.06\nmse = 0.22\nsamples = 120\nvalue = -0.88", fillcolor="#fdf8f3"] ;
28 -> 30 ;
31 [label="UD.l.Return <= 0.43\nmse = 0.94\nsamples = 16\nvalue = -0.25", fillcolor="#f5d0b5"] ;
30 -> 31 ;
32 [label="UD.i.e <= 0.11\nmse = 0.96\nsamples = 10\nvalue = 0.2", fillcolor="#efb388"] ;
31 -> 32 ;
33 [label="mse = 0.0\nsamples = 4\nvalue = -1.0", fillcolor="#ffffff"] ;
32 -> 33 ;
34 [label="mse = 0.0\nsamples = 6\nvalue = 1.0", fillcolor="#e58139"] ;
32 -> 34 ;
35 [label="mse = 0.0\nsamples = 6\nvalue = -1.0", fillcolor="#ffffff"] ;
31 -> 35 ;
36 [label="UD.period.t <= 0.45\nmse = 0.04\nsamples = 104\nvalue = -0.98", fillcolor="#fffefd"] ;
30 -> 36 ;
37 [label="mse = 0.0\nsamples = 87\nvalue = -1.0", fillcolor="#ffffff"] ;
36 -> 37 ;
38 [label="DD.n.l <= 0.24\nmse = 0.22\nsamples = 17\nvalue = -0.88", fillcolor="#fdf8f3"] ;
36 -> 38 ;
39 [label="mse = 0.89\nsamples = 3\nvalue = -0.33", fillcolor="#f6d5bd"] ;
38 -> 39 ;
40 [label="mse = 0.0\nsamples = 14\nvalue = -1.0", fillcolor="#ffffff"] ;
38 -> 40 ;
41 [label="mse = 0.0\nsamples = 87\nvalue = -1.0", fillcolor="#ffffff"] ;
27 -> 41 ;
42 [label="mse = 0.0\nsamples = 1\nvalue = 1.0", fillcolor="#e58139"] ;
26 -> 42 ;
}