digraph Tree {
node [shape=box, style="filled, rounded", color="black", fontname=helvetica] ;
edge [fontname=helvetica] ;
0 [label="H.o <= 0.08\nmse = 0.99\nsamples = 450\nvalue = -0.12", fillcolor="#f4c8a8"] ;
1 [label="UD.o.a <= 0.07\nmse = 0.89\nsamples = 262\nvalue = 0.33", fillcolor="#eeab7c"] ;
0 -> 1 [labeldistance=2.5, labelangle=45, headlabel="True"] ;
2 [label="DD.i.e <= 0.13\nmse = 0.57\nsamples = 174\nvalue = 0.66", fillcolor="#e9975b"] ;
1 -> 2 ;
3 [label="H.e <= 0.05\nmse = 0.2\nsamples = 19\nvalue = -0.89", fillcolor="#fef8f5"] ;
2 -> 3 ;
4 [label="mse = 0.0\nsamples = 1\nvalue = 1.0", fillcolor="#e58139"] ;
3 -> 4 ;
5 [label="mse = 0.0\nsamples = 18\nvalue = -1.0", fillcolor="#ffffff"] ;
3 -> 5 ;
6 [label="H.Shift.r <= 0.08\nmse = 0.29\nsamples = 155\nvalue = 0.85", fillcolor="#e78b48"] ;
2 -> 6 ;
7 [label="H.e <= 0.07\nmse = 0.13\nsamples = 148\nvalue = 0.93", fillcolor="#e68540"] ;
6 -> 7 ;
8 [label="mse = 0.0\nsamples = 142\nvalue = 1.0", fillcolor="#e58139"] ;
7 -> 8 ;
9 [label="UD.five.Shift.r <= 0.59\nmse = 0.56\nsamples = 6\nvalue = -0.67", fillcolor="#fbeade"] ;
7 -> 9 ;
10 [label="mse = 0.0\nsamples = 4\nvalue = -1.0", fillcolor="#ffffff"] ;
9 -> 10 ;
11 [label="mse = 1.0\nsamples = 2\nvalue = 0.0", fillcolor="#f2c09c"] ;
9 -> 11 ;
12 [label="mse = 0.0\nsamples = 7\nvalue = -1.0", fillcolor="#ffffff"] ;
6 -> 12 ;
13 [label="H.Shift.r <= 0.05\nmse = 0.9\nsamples = 88\nvalue = -0.32", fillcolor="#f6d4bc"] ;
1 -> 13 ;
14 [label="DD.t.i <= 0.16\nmse = 0.69\nsamples = 27\nvalue = 0.56", fillcolor="#eb9d65"] ;
13 -> 14 ;
15 [label="mse = 0.0\nsamples = 20\nvalue = 1.0", fillcolor="#e58139"] ;
14 -> 15 ;
16 [label="H.e <= 0.04\nmse = 0.49\nsamples = 7\nvalue = -0.71", fillcolor="#fbede3"] ;
14 -> 16 ;
17 [label="mse = 0.0\nsamples = 1\nvalue = 1.0", fillcolor="#e58139"] ;
16 -> 17 ;
18 [label="mse = 0.0\nsamples = 6\nvalue = -1.0", fillcolor="#ffffff"] ;
16 -> 18 ;
19 [label="DD.e.five <= 0.31\nmse = 0.5\nsamples = 61\nvalue = -0.7", fillcolor="#fbece2"] ;
13 -> 19 ;
20 [label="H.t <= 0.06\nmse = 0.79\nsamples = 11\nvalue = 0.45", fillcolor="#eca36f"] ;
19 -> 20 ;
21 [label="mse = 0.0\nsamples = 7\nvalue = 1.0", fillcolor="#e58139"] ;
20 -> 21 ;
22 [label="mse = 0.75\nsamples = 4\nvalue = -0.5", fillcolor="#f8e0ce"] ;
20 -> 22 ;
23 [label="H.e <= 0.05\nmse = 0.08\nsamples = 50\nvalue = -0.96", fillcolor="#fefcfb"] ;
19 -> 23 ;
24 [label="mse = 0.0\nsamples = 1\nvalue = 1.0", fillcolor="#e58139"] ;
23 -> 24 ;
25 [label="mse = 0.0\nsamples = 49\nvalue = -1.0", fillcolor="#ffffff"] ;
23 -> 25 ;
26 [label="UD.e.five <= 0.29\nmse = 0.45\nsamples = 188\nvalue = -0.74", fillcolor="#fcefe6"] ;
0 -> 26 [labeldistance=2.5, labelangle=-45, headlabel="False"] ;
27 [label="H.i <= 0.07\nmse = 0.95\nsamples = 56\nvalue = -0.21", fillcolor="#f5ceb1"] ;
26 -> 27 ;
28 [label="UD.n.l <= 0.11\nmse = 0.36\nsamples = 20\nvalue = 0.8", fillcolor="#e88e4d"] ;
27 -> 28 ;
29 [label="mse = 0.89\nsamples = 3\nvalue = -0.33", fillcolor="#f6d5bd"] ;
28 -> 29 ;
30 [label="mse = 0.0\nsamples = 17\nvalue = 1.0", fillcolor="#e58139"] ;
28 -> 30 ;
31 [label="UD.five.Shift.r <= 0.72\nmse = 0.4\nsamples = 36\nvalue = -0.78", fillcolor="#fcf1e9"] ;
27 -> 31 ;
32 [label="H.n <= 0.05\nmse = 0.22\nsamples = 34\nvalue = -0.88", fillcolor="#fdf8f3"] ;
31 -> 32 ;
33 [label="mse = 0.0\nsamples = 1\nvalue = 1.0", fillcolor="#e58139"] ;
32 -> 33 ;
34 [label="DD.l.Return <= 0.2\nmse = 0.12\nsamples = 33\nvalue = -0.94", fillcolor="#fefbf9"] ;
32 -> 34 ;
35 [label="mse = 0.0\nsamples = 1\nvalue = 1.0", fillcolor="#e58139"] ;
34 -> 35 ;
36 [label="mse = 0.0\nsamples = 32\nvalue = -1.0", fillcolor="#ffffff"] ;
34 -> 36 ;
37 [label="mse = 0.0\nsamples = 2\nvalue = 1.0", fillcolor="#e58139"] ;
31 -> 37 ;
38 [label="H.t <= 0.07\nmse = 0.06\nsamples = 132\nvalue = -0.97", fillcolor="#fffdfc"] ;
26 -> 38 ;
39 [label="DD.l.Return <= 0.22\nmse = 0.29\nsamples = 25\nvalue = -0.84", fillcolor="#fdf5ef"] ;
38 -> 39 ;
40 [label="mse = 0.0\nsamples = 2\nvalue = 1.0", fillcolor="#e58139"] ;
39 -> 40 ;
41 [label="mse = 0.0\nsamples = 23\nvalue = -1.0", fillcolor="#ffffff"] ;
39 -> 41 ;
42 [label="mse = 0.0\nsamples = 107\nvalue = -1.0", fillcolor="#ffffff"] ;
38 -> 42 ;
}