digraph Tree {
node [shape=box, style="filled, rounded", color="black", fontname=helvetica] ;
edge [fontname=helvetica] ;
0 [label="DD.e.five <= 0.24\nmse = 0.99\nsamples = 450\nvalue = -0.11", fillcolor="#f3c7a7"] ;
1 [label="H.n <= 0.07\nmse = 0.16\nsamples = 168\nvalue = 0.92", fillcolor="#e68641"] ;
0 -> 1 [labeldistance=2.5, labelangle=45, headlabel="True"] ;
2 [label="H.Return <= 0.06\nmse = 0.99\nsamples = 11\nvalue = 0.09", fillcolor="#f1ba93"] ;
1 -> 2 ;
3 [label="mse = 0.0\nsamples = 5\nvalue = 1.0", fillcolor="#e58139"] ;
2 -> 3 ;
4 [label="UD.five.Shift.r <= 0.28\nmse = 0.56\nsamples = 6\nvalue = -0.67", fillcolor="#fbeade"] ;
2 -> 4 ;
5 [label="mse = 0.0\nsamples = 1\nvalue = 1.0", fillcolor="#e58139"] ;
4 -> 5 ;
6 [label="mse = 0.0\nsamples = 5\nvalue = -1.0", fillcolor="#ffffff"] ;
4 -> 6 ;
7 [label="H.Shift.r <= 0.04\nmse = 0.05\nsamples = 157\nvalue = 0.97", fillcolor="#e5833c"] ;
1 -> 7 ;
8 [label="mse = 1.0\nsamples = 2\nvalue = 0.0", fillcolor="#f2c09c"] ;
7 -> 8 ;
9 [label="H.t <= 0.06\nmse = 0.03\nsamples = 155\nvalue = 0.99", fillcolor="#e5823a"] ;
7 -> 9 ;
10 [label="mse = 0.75\nsamples = 4\nvalue = 0.5", fillcolor="#eca06a"] ;
9 -> 10 ;
11 [label="mse = 0.0\nsamples = 151\nvalue = 1.0", fillcolor="#e58139"] ;
9 -> 11 ;
12 [label="UD.n.l <= 0.04\nmse = 0.49\nsamples = 282\nvalue = -0.72", fillcolor="#fbede3"] ;
0 -> 12 [labeldistance=2.5, labelangle=-45, headlabel="False"] ;
13 [label="UD.period.t <= 0.22\nmse = 0.76\nsamples = 43\nvalue = 0.49", fillcolor="#eca16c"] ;
12 -> 13 ;
14 [label="H.five <= 0.08\nmse = 0.47\nsamples = 37\nvalue = 0.73", fillcolor="#e99254"] ;
13 -> 14 ;
15 [label="mse = 0.0\nsamples = 27\nvalue = 1.0", fillcolor="#e58139"] ;
14 -> 15 ;
16 [label="DD.Shift.r.o <= 0.23\nmse = 1.0\nsamples = 10\nvalue = 0.0", fillcolor="#f2c09c"] ;
14 -> 16 ;
17 [label="DD.e.five <= 0.28\nmse = 0.94\nsamples = 8\nvalue = 0.25", fillcolor="#efb083"] ;
16 -> 17 ;
18 [label="mse = 0.0\nsamples = 2\nvalue = -1.0", fillcolor="#ffffff"] ;
17 -> 18 ;
19 [label="H.l <= 0.11\nmse = 0.56\nsamples = 6\nvalue = 0.67", fillcolor="#e9965a"] ;
17 -> 19 ;
20 [label="mse = 0.0\nsamples = 5\nvalue = 1.0", fillcolor="#e58139"] ;
19 -> 20 ;
21 [label="mse = 0.0\nsamples = 1\nvalue = -1.0", fillcolor="#ffffff"] ;
19 -> 21 ;
22 [label="mse = 0.0\nsamples = 2\nvalue = -1.0", fillcolor="#ffffff"] ;
16 -> 22 ;
23 [label="mse = 0.0\nsamples = 6\nvalue = -1.0", fillcolor="#ffffff"] ;
13 -> 23 ;
24 [label="DD.t.i <= 0.06\nmse = 0.13\nsamples = 239\nvalue = -0.93", fillcolor="#fefbf8"] ;
12 -> 24 ;
25 [label="mse = 0.89\nsamples = 3\nvalue = 0.33", fillcolor="#eeab7b"] ;
24 -> 25 ;
26 [label="UD.l.Return <= 0.11\nmse = 0.1\nsamples = 236\nvalue = -0.95", fillcolor="#fefcfa"] ;
24 -> 26 ;
27 [label="mse = 0.0\nsamples = 1\nvalue = 1.0", fillcolor="#e58139"] ;
26 -> 27 ;
28 [label="DD.Shift.r.o <= 0.21\nmse = 0.08\nsamples = 235\nvalue = -0.96", fillcolor="#fefcfb"] ;
26 -> 28 ;
29 [label="UD.o.a <= 0.07\nmse = 0.24\nsamples = 62\nvalue = -0.87", fillcolor="#fdf7f2"] ;
28 -> 29 ;
30 [label="mse = 0.0\nsamples = 45\nvalue = -1.0", fillcolor="#ffffff"] ;
29 -> 30 ;
31 [label="H.t <= 0.07\nmse = 0.72\nsamples = 17\nvalue = -0.53", fillcolor="#f9e1d0"] ;
29 -> 31 ;
32 [label="H.period <= 0.11\nmse = 0.28\nsamples = 13\nvalue = -0.85", fillcolor="#fdf5f0"] ;
31 -> 32 ;
33 [label="mse = 0.0\nsamples = 10\nvalue = -1.0", fillcolor="#ffffff"] ;
32 -> 33 ;
34 [label="mse = 0.89\nsamples = 3\nvalue = -0.33", fillcolor="#f6d5bd"] ;
32 -> 34 ;
35 [label="mse = 0.75\nsamples = 4\nvalue = 0.5", fillcolor="#eca06a"] ;
31 -> 35 ;
36 [label="DD.e.five <= 0.29\nmse = 0.02\nsamples = 173\nvalue = -0.99", fillcolor="#fffefe"] ;
28 -> 36 ;
37 [label="H.Return <= 0.06\nmse = 0.33\nsamples = 11\nvalue = -0.82", fillcolor="#fdf4ed"] ;
36 -> 37 ;
38 [label="mse = 1.0\nsamples = 2\nvalue = 0.0", fillcolor="#f2c09c"] ;
37 -> 38 ;
39 [label="mse = 0.0\nsamples = 9\nvalue = -1.0", fillcolor="#ffffff"] ;
37 -> 39 ;
40 [label="mse = 0.0\nsamples = 162\nvalue = -1.0", fillcolor="#ffffff"] ;
36 -> 40 ;
}