digraph Tree {
node [shape=box, style="filled, rounded", color="black", fontname=helvetica] ;
edge [fontname=helvetica] ;
0 [label="H.period <= 0.07\nmse = 0.98\nsamples = 450\nvalue = -0.14", fillcolor="#f4c9aa"] ;
1 [label="DD.n.l <= 0.13\nmse = 0.59\nsamples = 210\nvalue = 0.64", fillcolor="#ea985d"] ;
0 -> 1 [labeldistance=2.5, labelangle=45, headlabel="True"] ;
2 [label="mse = 0.0\nsamples = 168\nvalue = 1.0", fillcolor="#e58139"] ;
1 -> 2 ;
3 [label="UD.i.e <= 0.02\nmse = 0.34\nsamples = 42\nvalue = -0.81", fillcolor="#fdf3ec"] ;
1 -> 3 ;
4 [label="H.period <= 0.06\nmse = 0.89\nsamples = 6\nvalue = 0.33", fillcolor="#eeab7b"] ;
3 -> 4 ;
5 [label="mse = 0.0\nsamples = 4\nvalue = 1.0", fillcolor="#e58139"] ;
4 -> 5 ;
6 [label="mse = 0.0\nsamples = 2\nvalue = -1.0", fillcolor="#ffffff"] ;
4 -> 6 ;
7 [label="mse = 0.0\nsamples = 36\nvalue = -1.0", fillcolor="#ffffff"] ;
3 -> 7 ;
8 [label="UD.n.l <= -0.02\nmse = 0.32\nsamples = 240\nvalue = -0.82", fillcolor="#fdf4ee"] ;
0 -> 8 [labeldistance=2.5, labelangle=-45, headlabel="False"] ;
9 [label="H.t <= 0.05\nmse = 0.19\nsamples = 20\nvalue = 0.9", fillcolor="#e68743"] ;
8 -> 9 ;
10 [label="mse = 0.0\nsamples = 1\nvalue = -1.0", fillcolor="#ffffff"] ;
9 -> 10 ;
11 [label="mse = 0.0\nsamples = 19\nvalue = 1.0", fillcolor="#e58139"] ;
9 -> 11 ;
12 [label="DD.o.a <= 0.58\nmse = 0.04\nsamples = 220\nvalue = -0.98", fillcolor="#fffefd"] ;
8 -> 12 ;
13 [label="UD.t.i <= -0.02\nmse = 0.02\nsamples = 208\nvalue = -0.99", fillcolor="#fffefe"] ;
12 -> 13 ;
14 [label="mse = 1.0\nsamples = 2\nvalue = 0.0", fillcolor="#f2c09c"] ;
13 -> 14 ;
15 [label="mse = 0.0\nsamples = 206\nvalue = -1.0", fillcolor="#ffffff"] ;
13 -> 15 ;
16 [label="H.Shift.r <= 0.07\nmse = 0.31\nsamples = 12\nvalue = -0.83", fillcolor="#fdf5ef"] ;
12 -> 16 ;
17 [label="mse = 0.0\nsamples = 1\nvalue = 1.0", fillcolor="#e58139"] ;
16 -> 17 ;
18 [label="mse = 0.0\nsamples = 11\nvalue = -1.0", fillcolor="#ffffff"] ;
16 -> 18 ;
}