digraph Tree {
node [shape=box, style="filled, rounded", color="black", fontname=helvetica] ;
edge [fontname=helvetica] ;
0 [label="DD.five.Shift.r <= 0.38\nmse = 0.98\nsamples = 450\nvalue = -0.12", fillcolor="#f4c8a8"] ;
1 [label="H.t <= 0.06\nmse = 0.38\nsamples = 195\nvalue = 0.78", fillcolor="#e88f4e"] ;
0 -> 1 [labeldistance=2.5, labelangle=45, headlabel="True"] ;
2 [label="mse = 0.0\nsamples = 5\nvalue = -1.0", fillcolor="#ffffff"] ;
1 -> 2 ;
3 [label="DD.Shift.r.o <= 0.17\nmse = 0.31\nsamples = 190\nvalue = 0.83", fillcolor="#e78c4a"] ;
1 -> 3 ;
4 [label="UD.t.i <= -0.01\nmse = 0.13\nsamples = 173\nvalue = 0.93", fillcolor="#e68540"] ;
3 -> 4 ;
5 [label="mse = 0.0\nsamples = 1\nvalue = -1.0", fillcolor="#ffffff"] ;
4 -> 5 ;
6 [label="UD.o.a <= 0.0\nmse = 0.11\nsamples = 172\nvalue = 0.94", fillcolor="#e6853f"] ;
4 -> 6 ;
7 [label="mse = 0.0\nsamples = 2\nvalue = -1.0", fillcolor="#ffffff"] ;
6 -> 7 ;
8 [label="UD.Shift.r.o <= 0.08\nmse = 0.07\nsamples = 170\nvalue = 0.96", fillcolor="#e5833c"] ;
6 -> 8 ;
9 [label="DD.i.e <= 0.17\nmse = 0.02\nsamples = 166\nvalue = 0.99", fillcolor="#e5823a"] ;
8 -> 9 ;
10 [label="mse = 0.0\nsamples = 164\nvalue = 1.0", fillcolor="#e58139"] ;
9 -> 10 ;
11 [label="mse = 1.0\nsamples = 2\nvalue = 0.0", fillcolor="#f2c09c"] ;
9 -> 11 ;
12 [label="mse = 1.0\nsamples = 4\nvalue = 0.0", fillcolor="#f2c09c"] ;
8 -> 12 ;
13 [label="UD.t.i <= 0.04\nmse = 0.97\nsamples = 17\nvalue = -0.18", fillcolor="#f4cbad"] ;
3 -> 13 ;
14 [label="H.e <= 0.07\nmse = 0.49\nsamples = 7\nvalue = 0.71", fillcolor="#e99355"] ;
13 -> 14 ;
15 [label="mse = 0.0\nsamples = 1\nvalue = -1.0", fillcolor="#ffffff"] ;
14 -> 15 ;
16 [label="mse = 0.0\nsamples = 6\nvalue = 1.0", fillcolor="#e58139"] ;
14 -> 16 ;
17 [label="DD.o.a <= 0.09\nmse = 0.36\nsamples = 10\nvalue = -0.8", fillcolor="#fcf2eb"] ;
13 -> 17 ;
18 [label="mse = 0.0\nsamples = 1\nvalue = 1.0", fillcolor="#e58139"] ;
17 -> 18 ;
19 [label="mse = 0.0\nsamples = 9\nvalue = -1.0", fillcolor="#ffffff"] ;
17 -> 19 ;
20 [label="UD.i.e <= 0.07\nmse = 0.33\nsamples = 255\nvalue = -0.82", fillcolor="#fdf4ed"] ;
0 -> 20 [labeldistance=2.5, labelangle=-45, headlabel="False"] ;
21 [label="H.e <= 0.08\nmse = 0.55\nsamples = 129\nvalue = -0.67", fillcolor="#fbeadf"] ;
20 -> 21 ;
22 [label="DD.a.n <= 0.22\nmse = 0.22\nsamples = 69\nvalue = -0.88", fillcolor="#fdf8f4"] ;
21 -> 22 ;
23 [label="mse = 0.0\nsamples = 54\nvalue = -1.0", fillcolor="#ffffff"] ;
22 -> 23 ;
24 [label="H.n <= 0.06\nmse = 0.78\nsamples = 15\nvalue = -0.47", fillcolor="#f8ddca"] ;
22 -> 24 ;
25 [label="mse = 0.75\nsamples = 4\nvalue = 0.5", fillcolor="#eca06a"] ;
24 -> 25 ;
26 [label="DD.five.Shift.r <= 0.44\nmse = 0.33\nsamples = 11\nvalue = -0.82", fillcolor="#fdf4ed"] ;
24 -> 26 ;
27 [label="mse = 0.0\nsamples = 1\nvalue = 1.0", fillcolor="#e58139"] ;
26 -> 27 ;
28 [label="mse = 0.0\nsamples = 10\nvalue = -1.0", fillcolor="#ffffff"] ;
26 -> 28 ;
29 [label="UD.l.Return <= 0.15\nmse = 0.81\nsamples = 60\nvalue = -0.43", fillcolor="#f8dbc7"] ;
21 -> 29 ;
30 [label="H.i <= 0.07\nmse = 0.82\nsamples = 14\nvalue = 0.43", fillcolor="#eca572"] ;
29 -> 30 ;
31 [label="mse = 0.0\nsamples = 2\nvalue = -1.0", fillcolor="#ffffff"] ;
30 -> 31 ;
32 [label="H.l <= 0.11\nmse = 0.56\nsamples = 12\nvalue = 0.67", fillcolor="#e9965a"] ;
30 -> 32 ;
33 [label="mse = 0.0\nsamples = 9\nvalue = 1.0", fillcolor="#e58139"] ;
32 -> 33 ;
34 [label="mse = 0.89\nsamples = 3\nvalue = -0.33", fillcolor="#f6d5bd"] ;
32 -> 34 ;
35 [label="DD.Shift.r.o <= 0.18\nmse = 0.52\nsamples = 46\nvalue = -0.7", fillcolor="#fbece1"] ;
29 -> 35 ;
36 [label="mse = 0.0\nsamples = 6\nvalue = 1.0", fillcolor="#e58139"] ;
35 -> 36 ;
37 [label="UD.i.e <= 0.06\nmse = 0.1\nsamples = 40\nvalue = -0.95", fillcolor="#fefcfa"] ;
35 -> 37 ;
38 [label="mse = 0.0\nsamples = 36\nvalue = -1.0", fillcolor="#ffffff"] ;
37 -> 38 ;
39 [label="mse = 0.75\nsamples = 4\nvalue = -0.5", fillcolor="#f8e0ce"] ;
37 -> 39 ;
40 [label="DD.Shift.r.o <= 0.14\nmse = 0.06\nsamples = 126\nvalue = -0.97", fillcolor="#fffdfc"] ;
20 -> 40 ;
41 [label="DD.n.l <= 0.13\nmse = 0.82\nsamples = 7\nvalue = -0.43", fillcolor="#f8dbc6"] ;
40 -> 41 ;
42 [label="mse = 0.0\nsamples = 2\nvalue = 1.0", fillcolor="#e58139"] ;
41 -> 42 ;
43 [label="mse = 0.0\nsamples = 5\nvalue = -1.0", fillcolor="#ffffff"] ;
41 -> 43 ;
44 [label="mse = 0.0\nsamples = 119\nvalue = -1.0", fillcolor="#ffffff"] ;
40 -> 44 ;
}